822 100
na -0.794272 0.19497779 -0.3201291 -1.0943861 0.358271 -0.0055973856 0.1199546 -0.13801928 1.6686664 0.45241082 -0.43778965 0.8641234 -0.35417882 0.21354468 -0.32095736 0.95960027 -0.5646328 0.55941933 0.20532566 0.51410896 0.098529756 0.18035491 0.24168147 -0.12058767 -2.970695 -0.61393327 -3.3187609 -0.70445997 0.319283 1.019814 0.54989827 0.06802301 -0.40671256 -1.4665662 1.9544677 -0.33488813 -0.013252603 -1.9302554 -1.2903162 0.09066493 -0.28173542 1.403028 0.06617883 2.0073142 -1.4684044 -0.020313961 -0.26554662 -0.13570333 -0.049603064 -0.37181026 -0.8621007 -0.2739127 0.9896293 -0.9467191 -0.35221818 0.38619134 -3.1037712 -0.8210694 1.6540074 -0.05841845 1.2008431 1.6266483 0.6465628 6.08754 0.36741635 0.80775803 0.9692701 -0.41291374 -0.10624012 -0.29956454 0.00045028812 0.27948448 -0.1962918 -1.2180034 0.5471178 0.31684947 -0.54355246 0.38685328 0.53966427 -0.81765383 1.0296754 -0.18753298 0.23765151 -0.34190926 -10.678062 0.5071961 0.45578566 0.27868208 -0.6608179 -0.06196916 1.4299802 -0.40686327 0.9338472 -0.14381388 0.17442456 -0.70770794 -1.706341 1.7898662 0.08462511 -0.27226442
ya -0.13262533 0.7130169 -0.8801188 -0.6500093 -0.37876797 0.100961074 0.24418327 -0.2974321 0.81634974 -3.69597 -0.7581953 -0.46401677 -1.4348959 0.22764657 -1.2632829 0.27181613 -1.4195544 -2.1337035 1.0161667 -0.16837686 0.7077538 -0.9964983 0.60207546 -0.3189825 1.2823149 -1.2805321 -1.4185154 -0.3045636 -0.0900306 1.3750259 -1.1174135 -0.12670635 0.075963765 -1.096346 1.8045704 -0.80526656 -1.2752401 1.261997 -0.77260476 3.3613524 -0.44380093 1.6756353 -0.32624987 -0.12500758 1.164295 -0.057115763 0.66567624 -1.9450718 0.23650491 -1.1268965 0.8399321 0.50836265 0.6775744 1.6878691 -0.6477872 -0.4114983 0.49108946 -0.7031303 -0.49717772 0.4162524 0.78982097 -0.7558583 0.46990186 0.120548435 -0.16120431 0.59263057 0.9284805 -0.6068337 -0.61458844 -0.3105904 0.32304946 0.7006158 0.10692264 -0.23553684 0.26278147 0.622032 -0.15830447 0.40452906 -0.73357534 -1.0264885 3.027766 -0.19060232 0.6197924 -0.09875576 -3.7005026 1.6115108 -0.056228455 1.0344377 0.708429 0.17782377 1.3883113 -0.7650404 0.066384435 0.24772997 -0.21274652 0.46539128 3.8279605 2.190626 -0.4620683 -0.20370162
majaliwa -0.8722739 0.38304 -0.11643028 -1.4742892 0.5100896 -0.52497816 -0.58705306 -0.11047344 -0.19376089 0.9975373 -0.24158214 0.9800197 -0.6662794 0.07229287 -0.87496144 1.0660739 -6.474908 -0.7877656 -0.6714748 0.44284683 0.31843418 -0.39796045 -0.06613591 0.08136687 -1.6021751 -0.75950587 1.1260303 -0.8955402 -0.5303732 1.2371933 0.9355114 0.3185702 0.8124206 -0.1828918 0.6334951 -0.028845092 -0.7322243 0.9608385 3.399242 0.5711303 0.711872 0.8593403 -0.058852967 -2.99002 -1.8984426 -0.27649027 4.5320454 0.027597101 0.22032303 -0.20483705 0.32899413 -1.2637441 1.0575585 -0.15920122 -0.3918947 -0.29390374 -1.2093157 0.16511801 1.1191471 0.10896529 1.3879168 -4.5552044 0.34063986 -0.51964426 0.2638655 0.44751644 0.7092134 -0.042866822 0.5963891 -0.70902026 0.5693287 0.52776635 0.061156876 -0.08883383 0.15575102 -0.060474757 -0.3263189 0.7137399 0.08646877 0.74015135 1.1501161 -0.1325892 1.5547284 -0.46064663 2.348867 -0.10139503 0.40766254 -0.039291814 1.0003935 -0.34468806 0.69431734 -0.20082434 -0.012047299 -0.11742018 -0.1628111 -0.5471224 -0.23910287 0.64798874 -0.30020007 -0.97464466
kwa -0.5794354 0.22649175 -0.50235337 -3.9827642 0.9033173 0.24535348 0.2314336 -0.23281394 1.9484828 -0.17135026 -0.32475784 1.071787 0.2638774 -0.14198847 -0.53134006 0.26349622 0.44207978 0.6892997 -0.14861982 0.54213834 -0.2467629 0.4657343 0.07638514 0.27132493 1.1793679 -1.1524657 -0.11077021 -0.71948147 -0.21441817 0.72433466 1.4534082 0.39232707 0.815621 -1.1746776 0.56874955 -0.51979566 -0.72866607 -1.213198 2.7377818 -0.39866108 -1.2326083 0.0023227194 -0.5302307 -4.076965 -1.506162 -0.37495735 3.0487173 0.33776078 -0.40061188 0.28187582 -0.55259204 -0.80660015 0.2784694 -0.7997822 0.16550837 -0.015516723 0.328505 0.2872358 -5.542582 0.8624454 -0.06748185 2.0055964 1.0877794 3.7783706 0.6155201 0.18355642 1.0853827 -0.3380875 0.2685634 0.28048834 -0.0041881865 0.12863486 0.72042036 -0.6293742 0.2827875 0.24429113 -0.09747911 0.26116753 1.616902 -0.5534273 -1.9625182 0.46364233 0.17117484 -0.35451418 -1.3380094 0.12701954 -0.18526791 1.2769648 -0.6492474 -0.27564082 -0.8171197 0.04580709 0.67947584 0.3749653 0.75898653 0.32189175 8.231754 0.42778924 0.33846548 -0.8302238
wa -0.7921445 0.090771765 -0.0048745796 -1.720908 0.26085553 -0.18051286 0.35037392 -0.49396768 0.6278214 2.1198874 -0.33051363 0.3925011 -0.36869317 0.103789516 -0.7011499 -1.2303555 -0.15568502 0.09249203 0.09216225 0.7565317 0.4786529 -0.41055548 -0.6211351 0.049399223 3.1195378 -0.34038603 -0.50246006 -0.55004936 0.17660029 0.1500367 -1.626672 -0.6894126 -0.7484839 -0.61711824 1.0182312 -0.26828918 -0.7079845 -0.8266401 -0.046642028 1.5484868 -0.11088256 1.3484262 -1.287243 0.6778109 -0.64849293 -0.26594737 0.051200222 -0.7122234 0.08880918 0.19652046 -0.16652456 -1.8051804 -0.40112117 0.04256661 -0.47828785 -0.61849093 6.7457714 -0.76944244 1.7497752 0.5446361 2.1474924 -3.7912304 0.2269798 -1.5885338 0.06481146 0.9972341 0.7836346 -0.3156912 -0.34328055 -0.23120727 -0.06680077 0.06348422 1.0857188 0.42919368 0.6155124 0.97878456 -0.36737788 0.08201662 0.09389575 -0.69646376 1.7778976 -0.027366675 0.12138774 -0.4579309 -12.135988 -1.3588235 0.32487348 0.05584073 0.35143912 0.06871219 -0.18979356 0.5440762 1.0376332 -0.15318258 -0.2913647 -0.801785 -2.0318086 4.4725513 -0.009672127 0.046316348
alikuwa -0.37253666 -0.12714551 -0.62781996 0.018605527 -0.5883442 -0.58045894 1.0793924 -0.8401365 -1.8525565 -0.7050242 0.098122954 0.4484215 -0.5585146 0.27731612 -0.17892183 0.3834231 0.14152212 -0.8444809 0.4522987 0.3605796 0.083832085 -0.51316583 0.1865137 0.83048975 -2.6164763 0.22730446 4.08872 -1.0783714 -0.1015262 1.7221198 -5.7289963 0.2820406 0.81090677 -0.15283531 0.6493617 -0.28989762 0.20354196 -1.4740378 2.5301714 0.44967687 0.8884825 0.46339405 1.2004695 2.3522265 1.4251107 0.10831557 8.58597 -0.40149695 -0.057552356 -0.36647072 0.26386264 -1.5533466 -0.21850833 -0.4073302 0.36128846 0.5321392 2.385042 -0.72267574 1.1094903 1.0629303 1.2428471 -0.21827833 0.64385116 0.2647067 0.37997898 0.21237391 0.3662533 -0.13599204 -0.34371614 0.37122864 -0.1383568 0.1929716 -1.2855304 -0.61385465 0.4261672 0.010507803 -0.8261541 0.14411934 0.80885935 0.33463678 -1.616233 0.82334846 -0.6647599 -0.74583775 -5.79745 -0.25408846 0.22647591 -0.013839509 -0.008418138 0.4295919 0.28242335 0.47286323 0.056823332 0.19629034 0.98060894 0.15796392 -0.6653715 -0.29880595 0.3869399 0.15700442
kazi -0.34726748 -0.5950082 -0.38005146 0.7318895 0.27419302 -0.40553904 -0.20599297 -0.37329116 0.08339658 -1.1313705 -0.545792 0.99596167 0.36376277 0.10343927 -0.2215595 0.1014895 0.5594036 -3.6212604 0.9613667 0.19752383 -0.010672353 -0.84933764 -0.2740595 1.3062723 4.449146 -0.23686862 3.5969024 -0.72551006 0.05930268 0.37790632 0.19135737 -1.0584413 1.7257143 -0.2157579 2.3385873 -0.7274413 -1.6325804 -1.8548822 0.83114755 1.7197154 -0.97155076 1.2133645 -0.22504431 1.0842766 -1.9789382 -0.066152446 -0.80238473 -1.0218967 0.2973384 -0.64825004 -0.8642481 3.9976664 -0.20550765 2.4065676 -0.7241042 0.6392011 5.756346 -1.1325123 -1.1085962 0.8324756 0.7947468 -5.930323 0.19076589 1.1037275 1.231063 0.25330657 1.1385711 -0.3614008 0.49033698 -0.5152766 0.1801259 0.6446646 0.06036154 -0.093526445 0.7727955 0.68521065 -0.7619616 0.97143334 1.3775655 1.0373096 1.7527088 -0.3002292 0.3907394 -0.23918706 -1.2718624 -0.1007891 0.36543587 0.23484404 -0.5138836 1.2328895 0.2690649 -0.62693834 0.40158898 0.82368785 -0.49494857 0.34254852 5.384872 3.5157154 -0.6433149 -0.7301518
mashavu -0.97449577 0.33218658 0.93266624 -0.4953311 1.9049809 0.6378943 -0.35058492 -0.7769112 -0.70487833 2.3916018 0.074164875 1.0869768 -0.93506235 0.30033797 -0.37709218 0.41999343 0.9666809 0.40967137 0.1431609 1.3715197 0.69004047 1.7942743 -0.1740836 0.09508221 2.0184326 -0.68706083 -2.7775404 -0.9895688 0.005038214 3.3235455 -1.057324 0.7279843 -0.6786707 0.32023972 0.6906706 -0.21133119 1.0283198 1.9135044 2.3209298 0.1512551 -0.58215564 -0.19163339 -1.3778353 0.42647192 -0.24360423 -0.49373335 -0.4448898 -0.70589024 1.0974826 1.1397064 -1.0760167 8.958141 -0.0825045 -1.3789152 -0.15049952 0.15247567 -2.2225718 -1.272971 1.1336321 -0.507772 2.2495677 1.0653371 0.032180198 2.9798062 -0.7549354 1.2577533 1.2271271 0.37327576 -0.011995627 -0.07488422 0.67116874 0.7213688 -1.0440414 -0.6150396 0.33704588 0.17040464 -0.100637734 0.6254312 2.2251222 -0.33357012 2.408933 0.835803 -0.9477617 0.17869176 -1.3090925 1.217172 -0.06491635 1.3301864 0.019444609 0.17293663 -1.2156044 -0.74200547 1.0461562 -0.5767237 -0.051879752 1.4776353 0.058161788 1.4605951 -1.9970663 -0.52559626
bi -0.9697966 0.0395576 -0.9325259 0.0076242546 -0.14739971 -0.49893612 -0.77335817 -0.28158686 -0.628056 0.36352947 -0.61194485 0.30689517 0.6361707 0.65389353 -0.7071424 0.5405349 1.3442123 0.48068964 -0.17244305 0.9984727 -1.6271083 -0.060105875 -0.18917884 0.7531836 1.4460503 -1.151066 -3.4253635 -0.47112426 0.82771444 3.5348887 -0.6550657 0.7106645 -0.032264616 -1.3863736 1.5223835 -0.13584265 0.010437689 1.4543502 4.1629705 -1.2937399 0.35904872 2.1262553 0.28627762 -3.1115959 3.3860307 0.6297309 -0.5517112 0.4843144 -0.14415768 -0.5886044 -0.3688888 5.831024 0.13465025 0.21395107 -0.9230067 0.2442372 -0.7917116 0.8805185 0.82044804 0.85025173 1.8743623 3.7633312 0.0618803 0.39523044 -0.20614071 0.04007197 1.368427 0.63338864 -0.49025562 -0.56461036 -0.44508785 0.45431972 0.058098756 -0.09439093 0.07000946 -0.28187189 -0.1828416 0.7130414 -1.3428222 -0.9389694 0.504386 -1.1200708 0.23306945 -1.238446 2.739593 1.5637575 0.47132564 2.387517 0.9462402 -0.8711461 1.336768 -0.6204168 -0.6690686 -0.51314336 0.8432906 2.6918776 -0.38424757 1.1315595 0.26225093 -0.86091113
rashidi -0.35503837 0.7292449 -0.6887649 -0.52556074 -0.19337724 0.77882344 0.41799188 -0.19771588 -4.029317 -0.84853655 -0.6534235 0.9251426 -1.4736289 0.119429536 -0.11271418 1.4386952 -1.2702018 -0.028579364 0.49829543 -0.54319197 0.7061958 -1.286845 -0.65164745 -2.4609296 -4.4639373 -0.70057774 -0.7192061 -0.7994255 0.041210085 7.539866 -0.0040207035 -1.7667422 0.1819436 -0.4295091 -0.5559708 -0.54839355 -0.30566257 -0.21815786 5.35063 -0.972181 0.2652749 1.04453 0.9541884 -2.2864943 -0.7632048 0.08154176 2.7536662 -1.1376277 -1.4020004 -0.27494678 0.9754596 -0.9392692 2.0226705 -0.7206667 0.3048875 0.090517 -1.5171074 -1.3361702 1.2976036 0.2459595 0.43976945 1.6271698 0.44205064 2.5142806 -0.33333114 0.089349136 0.5697916 -1.1188555 1.5901331 -0.13639285 0.7112266 0.30431762 -0.050379917 -0.5770663 0.3534154 -0.5120983 0.21147287 1.0315591 0.37471974 -0.6820512 -1.748026 -0.62065715 -0.49279788 -0.5312247 1.1152209 -0.94887227 0.7651084 3.3402085 1.0577486 0.076179706 0.17683607 -1.4344412 0.476363 -0.2484391 0.3849473 -1.3366687 -1.2575936 0.15249544 -0.43974784 -0.61952674
hapo 0.053645838 0.5613171 0.42790264 1.433215 -0.07809576 -0.35137892 0.057433575 -0.39462367 0.5249234 1.5660347 -0.08978599 0.055896018 0.10534978 0.14227912 -0.1048387 0.829001 1.3897823 -4.390954 -0.520673 0.7392232 -0.011671001 0.83680016 0.3456068 -0.29988855 4.026324 -0.70971483 2.886433 -0.6700325 0.29610643 4.5017037 1.4456222 0.5538794 1.0666692 0.5978354 1.4629441 -0.39179415 -0.18336986 4.0787582 -1.2560855 -0.34123075 -0.057443593 1.5498375 -0.8729822 1.7893858 -0.55098426 0.23345342 1.2807108 0.5822733 0.9970539 0.7905428 -0.60269815 -0.83596337 2.5454354 -0.12491825 0.28904542 0.23042761 -1.6981397 -0.8222605 0.9552252 0.35644025 2.3232718 3.0853364 0.6051281 -2.632371 -0.4932312 0.3748626 0.8445343 0.812963 0.1726127 -1.1168886 0.14633164 0.11126897 -0.5210944 -0.1576255 0.3333074 1.570772 -0.3940749 0.6895735 0.15309004 -0.6660394 -1.8161262 -0.17361884 -1.1250861 -0.44266468 -0.9290591 -1.108545 0.22832666 -0.546983 -0.67044073 -0.6943128 -1.3860483 1.9026434 0.87851775 -0.13407665 -0.31038818 8.452407 1.5209326 -0.54751843 -0.34906533 -1.1079526
siku -1.076316 0.62683564 -0.18889143 0.9175295 0.3354963 -0.5339108 1.2165421 -0.71873575 1.29524 -0.014009032 -0.5946717 1.9557012 0.5615639 -1.2310399 0.38229424 -0.14342743 -0.50775063 0.65946144 2.7306242 0.011027381 0.19178045 -0.74429685 2.1147985 -0.10356179 2.8342113 -0.64990866 1.0024195 -1.0706615 -1.5311861 -1.266273 2.8203232 -1.0907848 0.77780753 0.49029568 -3.485438 -0.303465 -1.2470709 2.9294355 -2.6690917 -0.88168347 -1.6724528 0.6914534 -0.21848874 -0.4234352 -2.1618288 -0.6387306 0.052478623 -1.284295 0.03822136 0.35831344 0.40147012 -0.60228246 0.7143027 -0.18634264 -1.8647547 -0.34396338 2.5894206 -0.37527195 3.4400744 1.0568603 1.8902612 1.7082623 0.39236546 6.579315 -0.26397616 1.0966027 1.5462062 -0.2006695 0.74622047 0.011281714 0.40205848 0.610523 -0.087815486 0.21601279 0.13838416 1.6283182 0.13909058 -0.59350604 0.26868093 -1.72099 1.1028949 -0.6791393 -0.26158616 -0.82239527 0.5346412 0.032293327 0.1483057 -1.2015936 -1.085335 -0.13034901 2.031528 0.19376373 -1.1268439 0.97216034 -0.15090969 2.7806878 4.5016856 0.87273127 -0.26364082 3.8862033
yake -0.415609 -0.08112708 -0.047279608 0.97031 -0.088031635 -0.23635171 -0.2145984 -0.7431982 -4.8808155 -1.6825547 -0.64378923 0.7139132 0.048937403 0.10117823 0.026115127 -1.2394112 1.1539696 0.4732941 0.90604436 -0.4704083 0.26705396 0.44868708 -0.8664311 -1.1281663 2.7980354 -1.5528517 1.5973815 -0.73755425 0.3819878 0.20906551 -0.03177119 0.8878478 -0.20801839 -0.92966515 2.5761132 -0.56568974 -1.051362 -1.462206 4.1259966 1.3515813 0.36859387 1.6019635 -0.4231779 2.6300828 -2.0979211 -0.092726454 5.2784224 0.15068921 0.9801316 -0.24615549 0.12647617 -0.03608363 3.682979 3.8575113 -0.043422442 -0.32093075 5.850731 -0.7803617 1.7586187 -0.6741655 2.2441063 2.1471584 0.18628688 3.8159225 1.0716238 0.68302083 1.0569091 0.2523674 0.35190213 0.65667343 -0.36295146 0.32453227 -0.5013753 -0.5587812 0.54902583 0.13784145 0.51967204 0.5144535 0.502023 -0.87946475 -1.571425 -0.28886503 0.06977937 -0.32010204 -3.6593254 -0.20523131 0.4431382 0.18963079 1.0391464 -0.10841232 0.44963938 -0.6867695 0.25489834 -0.5240153 0.06708316 -0.5621432 -0.26077235 -0.5295311 0.41500834 -0.20121422
kama -0.42040825 0.17309836 -1.3478681 1.229904 0.24346685 0.39027375 0.3503143 -1.5797039 1.3103642 -1.1901437 -0.15123437 1.6003925 0.8134399 0.26985574 0.5395526 -0.9062378 -1.3987495 -3.6771703 1.0421141 0.85968554 -0.047950245 0.9117 -1.3226357 0.36342645 -5.2904363 -0.61694354 -2.6079211 0.10108651 -1.8611581 1.1480464 3.0817206 0.38663644 1.2225189 -0.033299726 0.8171524 0.4799584 -1.0642035 -1.3930404 -1.9392158 0.08434949 0.4039354 0.3213697 -1.7635459 -3.703629 5.92997 0.26759982 -0.23232768 -0.44702947 0.85618794 0.8037701 -0.95738304 -0.17018878 -0.21236008 -1.4146725 -0.2504804 -1.0544813 4.514353 -0.75930923 1.6652589 0.26624227 1.7740813 3.0825057 -0.43440422 3.855423 0.24377875 0.10374507 1.367325 0.08186528 1.3709943 0.2388018 1.3172269 1.2528957 0.54851663 -0.6245263 0.52193236 -0.90159225 -0.48030058 -0.19691452 0.043850265 -0.23436095 0.020531096 0.16194803 -0.96575546 -0.38843608 -0.85492676 1.3044556 -0.032860044 -0.7381922 -1.0512857 0.7914929 -1.0284644 -0.2907206 0.7686776 0.23807144 0.57181025 -0.96107835 -1.6488217 0.7357543 0.7042418 -1.0509992
sehemu -0.6533586 -0.49221087 0.4058298 1.5094563 1.4434806 0.011180359 -0.10965184 0.3428376 1.2692912 -0.4781772 0.2388317 1.2818487 1.268432 -0.4869396 0.59327435 0.5817515 -0.50761575 1.5756056 -0.6529452 1.3719802 -0.80732495 1.6005579 0.17050289 0.55958015 1.6384777 -0.653637 -1.2724043 -0.19766054 0.268467 -0.6616694 2.2361507 0.4472555 0.080281615 0.033940233 0.48989114 -0.087631226 0.8120435 -1.0375268 -1.4525298 -2.2923055 -0.42691326 0.63210034 -1.7884216 1.3651618 -2.030333 -0.3603652 -1.3202524 1.8201512 0.5950258 1.2233454 -1.4269208 1.9785467 0.35290775 -1.7035193 0.17953677 0.5590152 -3.706912 -0.4191293 -3.6679792 0.1300829 -0.075651556 -8.373528 0.51683223 3.8956845 -0.7063938 -0.1976268 1.0750619 0.59537417 0.57437253 -0.58024806 -0.021150326 -0.29699698 0.032817755 -2.9964025 0.30227906 -0.9738913 0.37271768 0.55078226 0.79646 -0.5008077 -0.40072894 -0.7699433 0.5081418 -0.45181763 -0.8598277 -0.3399145 0.42792454 -0.4073164 0.57713884 -0.07709107 -1.5255691 -0.74040115 1.2014481 -0.15500343 0.5116818 -0.20162892 -0.5191155 -1.7215579 1.0003699 -0.79183483
mtoto 0.90411365 1.0958188 -0.25873327 1.0389577 0.37968048 0.1456127 1.3985951 -0.95898944 1.5788461 0.08623325 -0.3168614 0.22375867 3.3854659 -0.20648275 -0.24289817 1.0119336 2.034487 -0.2104465 -1.9170313 0.73788255 -1.1971922 0.25927073 -1.5070502 0.2950509 -2.7957356 0.13695987 -2.5345645 -0.06675982 -1.5534333 4.100311 -2.8094487 -1.0951877 -0.83718 -2.4386935 1.4117256 -1.0154344 -0.31836605 -1.253933 6.313879 4.3078213 -0.04532545 0.41457066 -0.8909391 -1.8217036 -1.4948384 -0.41124365 1.1714113 -4.2616 -0.5993245 0.36038607 0.54973656 2.0732846 0.15418777 0.22841279 -0.17045183 0.005663117 0.14785545 -0.060370613 2.0331054 -2.3953545 0.76134616 -1.371282 0.3675064 3.1174092 -0.74520296 -0.62308 1.1138675 0.31233737 1.1964625 -0.5361111 0.11147358 -1.1005454 1.0294696 -1.8735081 -0.059222482 -0.7557167 -1.0416741 -1.261514 -0.90592134 1.227763 0.5509636 -0.03390955 0.1743232 -0.89665574 4.310227 -1.491334 -0.6349612 -0.1291413 0.5003189 -0.16571973 1.4956601 -1.4472576 1.5736144 -0.43845803 -0.027848829 2.096898 0.05393944 -0.16613583 0.12530975 -1.2868409
mpaka -0.056105237 0.36191458 0.38509682 0.9835074 1.2667658 -0.6404369 -0.19992387 -1.0872389 -2.2210724 1.8566966 -0.123999305 0.26565713 -0.2618283 -0.34203088 0.09835019 -0.5628721 1.907281 -0.93350947 -0.10963758 0.37910718 0.30384088 -1.0913972 -1.0045984 -0.39785156 -0.053081997 0.2595685 2.0248742 0.26374987 -0.28749862 -1.4820336 2.7947073 -0.1980418 2.08733 1.0198556 -0.31340447 0.38158548 -1.0978322 2.6789072 1.6383709 3.938912 0.37612998 2.2719774 0.0319777 0.7012476 3.5563903 -0.3821407 -0.64041597 1.1315671 1.2436866 -0.055740256 -1.2205616 -2.5938284 1.6702979 3.181825 -0.18890755 0.27852783 1.2640873 -1.3359768 0.9630671 0.0822737 -2.0330896 -3.9670315 0.055972725 -1.6078275 1.0514112 0.87313366 1.7318771 -0.1450815 -1.0720928 -0.86494493 -0.45995268 0.036651555 -0.56471634 -0.32035148 0.11236709 -0.0185166 1.0473303 -1.4614867 0.3491511 0.8364743 2.2917104 0.11757482 -0.31417814 -1.3235148 1.1008371 -0.011408287 -0.39796546 5.080343 0.33453575 0.8622241 0.27229646 -0.42071998 0.18315603 0.44965938 0.73683655 0.8730156 -0.032176837 2.186272 1.1628526 -1.0387168
yule -0.16277 0.80502105 0.3696045 0.7513325 -0.7293659 -0.20620233 0.39166144 -0.524438 1.0071485 -2.2223053 -0.65001905 0.5326319 0.20334935 -0.28194115 -0.33190614 0.6666986 -1.0468667 0.45565704 0.5526287 -0.29816386 0.45337602 -0.5263866 0.18812752 -0.999085 0.16362359 -0.899583 0.49073347 -0.18797044 -0.23880039 -0.7459819 0.2698139 2.1155157 0.4495908 -1.7196916 -1.4530191 0.45295763 -0.36975902 -2.546753 -0.047177825 -1.2578232 0.7042696 -0.22080922 1.6564752 -0.22661082 3.2015128 1.3106391 0.010912812 0.48555374 0.56568784 0.008812898 0.48638976 1.9008094 1.5661914 -1.0049415 1.1612387 0.28735965 0.13028729 -0.3028889 -2.6149545 -1.3092312 -2.275128 1.9350034 0.4085756 -0.3997243 -0.48670274 1.3658897 0.5982814 -0.73121494 0.3310267 -0.6715549 -0.20289823 -1.1086272 -0.9053931 -3.3257031 0.36971837 -0.82586193 -0.702718 0.643882 0.42056015 -1.2994112 -0.16828944 0.22324996 0.21229067 -0.34938088 -0.2777963 1.8703592 0.73504835 -0.98563606 1.6919787 0.079380564 1.0016143 -0.7717801 0.9346972 0.41967583 2.89003 -1.5415608 -0.2405509 -0.46234065 -0.24652943 -0.802278
moja -0.6984069 0.44552165 -0.41445002 1.125611 0.48410413 0.5134344 -0.22056277 0.90278196 -2.9579766 1.8701422 -1.7786154 -0.41960698 0.5286519 -0.59606904 -0.40418708 0.13114831 -5.7041163 0.2290146 0.2158376 0.4545968 -0.38042185 -0.6510751 -1.0589184 0.35830992 1.419621 -0.09644141 -3.3239121 -0.088944845 -0.3838349 -0.289905 0.62081206 -1.1046007 1.5907624 0.28299135 -2.2936897 -0.10162422 3.079174 0.81354356 -0.6899452 2.0438182 -0.8717514 0.21366017 0.5004402 -0.45223746 -0.74383956 0.54479855 -2.0460267 1.5139639 -0.7306092 0.25415635 -0.69503045 -1.6375296 -0.08124892 1.1060022 -0.25845656 0.061917797 1.9083357 -0.636193 0.29514858 0.43445402 -1.2581656 -5.204657 0.35335156 1.9100525 0.78667897 0.14263692 0.8785532 -1.8093269 -0.3688468 -0.77397937 0.46659628 0.616503 0.36122036 1.412829 -0.022399154 -0.30912006 -0.47261846 1.115597 -0.52539635 0.6593923 3.0288024 -0.5308098 0.29883423 -0.18080214 -1.0878145 -0.48581666 0.7619979 2.2978146 -0.67107177 0.161578 -0.8650055 -0.25540054 0.9440363 0.6857578 1.094948 4.121221 -0.34796363 0.10868858 0.5755411 -0.65352863
katika 3.512246 -0.6032597 -0.7678557 -1.9832065 -0.22938824 0.31455603 0.7360903 -1.4287072 0.573116 -1.326893 -0.09094702 -3.475067 -1.1395004 0.53027177 -0.013812552 0.6780954 2.2841737 1.329244 0.5454567 0.6262681 1.0457218 0.34880784 -0.77721715 0.32888752 -0.21751307 -0.6961609 0.42189875 0.2784466 0.78069836 5.112068 -0.024922686 -0.81498563 0.1591342 -0.23460935 -0.004180298 -0.23433322 1.0818598 3.9861648 0.9723234 -0.28358534 0.8605163 1.1526325 -0.8194609 -2.4308999 -0.7897716 0.9250403 1.1237452 1.1925447 1.2584405 -0.21564046 1.7714386 0.86741775 2.87802 -1.0611324 -1.082431 -0.3624265 1.7957872 -2.1997998 1.7552878 0.28080568 -1.7315544 1.8005282 0.7825854 -2.3846533 -0.12907769 0.9144686 -1.1047983 -0.17557353 1.2942134 -0.94167703 1.4426243 0.19773248 0.22358054 0.15352856 0.00032474822 0.52721524 1.1314611 -0.5860053 0.017452743 0.11172297 -0.5683272 0.008757936 0.611852 -0.5301024 0.8885155 1.4290656 0.6273266 -0.0284224 0.57504445 0.5241358 0.26552573 0.2535436 0.22786278 0.4942128 0.13848521 1.7799165 -2.2179909 0.39013824 1.1748179 -1.8264711
tu -1.1956868 0.43018755 -0.07921491 -0.39801967 -0.09169602 -1.050943 0.15018816 -0.31984332 1.0916829 -0.5536967 -0.043552473 0.855308 0.4738978 -0.03308361 -0.5263289 0.7533358 0.7808686 0.9750515 0.24676771 1.089372 0.46639922 0.24354853 0.97401667 1.1650596 0.3912149 -1.1481405 0.019706191 -0.8564778 0.14531131 0.32086053 2.291319 0.44010893 -0.6322307 -5.2397547 1.2842835 -0.15733019 -0.46336073 0.7912521 6.037366 -0.30646878 0.1404126 1.6822187 1.5213516 1.8699424 5.3095484 -0.18714154 -0.5355019 0.27151018 0.8419154 0.4064375 -1.1701015 -1.2455237 -0.22197372 1.5347874 0.2719272 0.2550896 4.3365455 -0.91098505 0.70426184 -0.0916318 0.5206546 2.2864394 0.6628628 1.6090239 2.2623656 -0.56191474 0.27010697 -0.6539314 0.3475841 -1.2347746 -0.19855435 0.19436237 0.9700784 0.16892777 0.8601743 -0.61345506 0.9490185 0.3213883 0.52163535 -0.70651096 1.2145298 -0.02899669 -0.25144273 -0.5459595 -7.546671 0.30172503 -0.44926926 -0.024846628 0.90831923 -0.48044 -0.648605 1.2567167 1.0210485 -0.37729302 -0.6015794 -1.693825 2.229129 -0.35966372 -0.24097443 -0.6085994
kazini 1.7773216 1.7898802 0.41170287 0.69936913 0.5999739 -0.37909177 -0.36925226 -0.10666708 1.0219768 -2.2703092 -0.027147379 -0.54657674 0.23789108 -0.121660344 -0.023235125 0.5415987 1.3307667 0.9349942 0.4202959 -0.960797 0.23646623 0.38477406 0.09373344 0.30175 0.9606246 -0.6444977 -1.530871 -0.39853057 -0.9909191 0.2640133 0.63061684 -0.17163865 -0.42720476 -0.2615697 -0.24185233 -0.62366813 -1.7331935 -1.0951868 2.071031 0.64750576 0.20460913 -0.029980626 3.5593786 -0.2726963 3.8619835 0.8251301 -0.37746882 -4.161551 0.83305246 0.25237697 -0.2162637 -0.57802165 1.9930372 3.859724 0.61090964 -0.3675718 1.7168367 -0.5610323 -0.041020524 -0.22697695 0.9375301 -0.5590796 0.23328237 0.6884982 0.06955669 1.4357346 -0.74891967 -0.23182419 -0.26068437 -0.068685755 -0.62659806 -0.054563046 -0.22179773 0.25557896 -1.1543478 0.522984 0.5592092 0.9117809 0.2264191 0.12220536 0.97569805 -0.19808608 -1.0304185 0.7478898 -5.599035 -1.453825 0.8247395 4.5193458 -0.048150346 0.26929924 -0.8397951 -0.98399836 -0.4584236 -0.1078755 0.002900461 1.7181362 -1.2954109 0.78944445 1.6166326 -0.33278
leo -0.873821 0.9180389 -0.075735025 -2.3866735 0.6274021 0.5930599 -0.20456001 0.56965816 -2.5070927 -0.9661886 -0.08116934 1.6624031 -1.1951454 0.03097007 2.0941439 -0.7953103 -0.03404413 -1.3444479 1.0234358 -0.30771387 -0.2634408 0.13385527 0.015861066 -1.7428763 0.8410753 -0.058132216 -0.29122707 -1.7483888 -0.7698866 1.8857051 -2.2885752 -0.2576913 1.2633218 -0.01026394 -2.1158123 -0.94389886 5.177178 -0.3875403 1.7497681 -1.515104 1.0489801 -1.8728037 -0.5613733 0.5602582 -0.1780015 -0.109917104 1.3274714 0.06864935 -0.95087475 1.6101985 1.1558169 0.61552966 0.0031101534 -1.4795212 0.55727476 -1.0162158 -1.218967 -0.2663979 0.21289426 -0.47817576 -1.4209788 -1.0876849 0.14838393 -0.5454041 -0.48896906 1.125767 -2.708229 -1.6214865 -0.18205631 0.20257941 0.57085466 0.4323492 0.27643827 -0.95776993 -0.11919597 0.4344688 1.0229291 -0.087142274 0.5854602 1.6418151 -0.54437673 0.12952037 -0.7393975 -0.9462465 2.527421 -0.53215075 0.5980776 0.6326256 -0.31014124 1.0170902 -0.05927303 2.4596808 0.7939892 -0.23190992 -1.2468613 -1.2199216 -0.67963237 0.964638 1.3239087 -0.73730737
baada -0.55156183 -0.011417155 0.56695473 2.0248988 -0.51256585 -0.3564519 -0.0650057 0.53678685 -0.36405635 -1.0463098 -0.6444683 1.5950024 0.018847521 0.08844946 0.07528697 0.63994557 -0.50250614 -2.543026 0.1826754 0.3771597 0.04053407 1.4336697 -0.1418761 0.80353993 1.7480305 -0.6286582 -2.1169307 -1.0992389 0.021857752 -0.6417543 -3.7636423 0.38593695 -0.4319525 -2.3695393 0.6586105 -0.055939846 -0.38231075 -1.1117711 3.2879894 -2.0168808 -0.074861765 1.4757388 -0.75783503 2.6670432 1.6573827 -0.06049164 -0.0018726535 0.4946096 0.98315567 0.35442543 0.42351624 -1.3912601 0.2864428 0.99747723 -0.11453023 0.12876007 6.177374 -0.66076183 -1.2962348 1.2038168 2.7758477 2.0989008 0.02204122 -2.2245562 -0.6432574 0.5779155 1.4286498 0.06740926 0.12104259 -1.2709556 0.36597946 -0.88411283 -1.3095318 1.5426093 0.026341736 0.19961266 0.47554335 -3.8405583 -0.34539738 -0.22889906 -0.097826414 0.15568376 -0.43306768 -0.7470517 -5.8203816 2.9718187 0.66561043 -0.32121387 0.8494607 0.17856503 -0.99661237 0.12554276 0.46188033 -0.6602786 -0.33347738 -1.0828753 3.2063887 0.00025330577 -0.116097845 -0.17073977
kila -0.9947344 0.6509708 -1.825422 -0.98806626 -0.9767492 0.4199711 1.2119961 -0.06557046 -0.55575407 -2.9956894 -0.27533445 0.2727412 0.728969 -0.005834453 -0.056616474 -2.7770126 0.6763409 -1.7530236 -0.31414637 0.7561879 0.79795 0.33139297 -0.3235192 -0.31942293 2.1848223 0.6349376 -1.6929348 -0.40950134 -0.5911884 3.0592644 2.6387568 -0.6296206 -0.13665357 -2.1748664 0.19515838 -1.1178539 -1.1689304 3.3955805 -1.2742306 -0.6404716 0.38759115 1.7597167 -0.03798612 1.2068456 5.977984 -0.083527245 2.3955045 0.32532993 0.15429872 -0.54464924 -0.9699321 -0.68912077 -0.39592773 -1.1302525 -0.056513757 -0.98706263 2.2753742 -0.39865273 1.6875775 2.094483 -0.7552507 1.9376122 0.3326337 2.735606 -0.48052 -0.019279582 1.2492481 0.16988222 0.074384615 0.70818037 -0.3979362 1.6714596 -1.7043321 0.15134686 -0.04281369 0.19824058 -0.3251167 0.55994594 -0.19192412 0.34857544 0.049637858 0.038872432 0.35197157 -1.0578058 0.5575247 1.2132784 0.9126011 -1.004054 0.6056009 0.5762035 -0.35144466 -0.79434156 0.39695546 -0.5589591 0.41231835 -1.0333644 -1.6272248 0.90031534 -0.022069823 -0.6245804
wote -0.16715226 0.43316203 -0.28588918 1.6031187 -0.03733249 0.29610682 0.34901696 -1.2403044 -1.5541861 -0.71590203 0.12051582 2.0412579 -0.597027 -0.15522495 -0.2761244 0.11898181 -0.46013492 0.589457 0.5119779 1.2187061 -0.25588346 0.3084566 0.41461265 -0.9073878 -2.855409 -1.5708431 -1.0511153 -0.9671901 -0.43087205 2.245059 0.6361915 -0.8945415 -0.16612361 -0.5914575 -0.88816726 -0.8690788 -0.47000384 1.2231586 -2.8156266 3.818045 0.43718243 0.56806993 0.043010596 -4.2839317 -0.5076377 0.99115825 -0.6433398 0.024382025 0.9801922 2.9631522 -1.3673211 -0.40273315 0.47286615 -0.61353827 -0.20563811 -0.059833422 1.0203409 -0.90282816 -4.0603943 -2.5148687 -2.7942157 -0.20753947 0.25882366 0.32451826 2.4938462 0.45971578 -0.64936453 0.67101765 0.5636827 -0.32382128 1.7529248 0.6940301 0.5665524 0.442784 0.24552262 -0.39352742 0.3707819 -0.51056165 -1.2322696 0.10556105 1.1157516 0.08898458 0.7050231 -0.27357942 0.17785023 -0.046562694 0.96558493 0.544374 0.43734288 0.32082307 -0.06766316 -0.31875205 0.9889345 0.054703947 0.51103365 2.9212015 -0.095866814 0.43999055 -0.26292926 -1.2416451
mumewe 3.305379 0.5073029 -0.5242666 1.1158849 -1.2778662 0.8646985 -0.70273584 0.49902648 1.1362596 -0.5427101 -1.0169082 0.17419484 1.2304201 -0.65989584 0.17555708 0.4315495 1.0237632 1.1443394 0.2969754 1.4839289 0.23237684 1.1839627 -0.23332493 -0.030662907 3.8954592 -0.88816607 1.3891028 -0.43945563 -0.21200338 -1.2476312 1.896067 1.1309882 -0.5316337 -5.490154 0.7591636 -1.549998 -0.1566914 -1.0458477 1.1560669 0.067280486 -0.7258435 -0.32424358 -0.9036712 2.9086227 0.7974211 0.29998338 -0.118038744 0.7385752 0.86915237 0.031996906 -0.5795615 -0.5387912 1.7684317 2.8623655 0.22043742 -0.20109229 -2.2288418 0.1781466 -0.41099533 0.27616104 0.22207595 -2.7932227 -0.17969693 4.0009522 0.15995885 -0.04740894 -2.0173912 0.04912328 0.26932645 -0.058959782 0.0020437422 -0.114394404 -0.054876253 0.6901339 0.6271744 -0.7605058 -0.7037769 -1.317581 1.7141305 -0.6314103 0.5519761 -0.046597637 1.4614758 -0.44309017 -2.7860966 0.12903781 0.5564033 -0.68394333 -0.5346962 -1.076617 1.3909372 0.46150348 0.027420271 0.8963658 0.3700025 -1.0813501 -0.47986785 1.461679 -0.32218087 0.42203584
huku -1.4629273 0.4357926 -1.5835521 -5.45398 0.6452969 1.1176257 -0.4276646 -1.354266 -0.24752079 -0.6537899 -1.4016267 1.4505804 -0.13228187 0.9358751 -0.5807615 0.86951953 -1.2647297 0.8617432 0.077883504 1.7267079 -0.6592925 0.52905625 -0.9040475 -0.41738835 0.06874178 -0.6250129 -1.9542202 0.33134717 0.5109222 4.0749893 -0.21895067 0.16001539 0.43483466 -0.0012174791 -0.53866565 -1.2761513 1.4890767 -0.6368894 2.0370982 2.7968864 -0.71439576 -0.7014239 -0.098780334 2.1055071 3.0241652 -0.8086665 -1.0113956 0.31382394 0.66283315 -0.4438944 -0.6133057 0.3339135 -0.045188565 -0.1914489 -0.095650285 0.022181306 -1.8747715 -0.01343386 0.9080307 0.26849023 -0.3427861 2.131628 -0.1911866 0.6312615 0.6888509 0.9366713 -0.8583248 -0.048957087 0.1075097 -0.17748345 0.35949913 1.2149326 0.7263096 -2.9598184 -0.17390883 1.1003923 -0.010489253 0.9737545 -0.14998806 -0.48205236 -1.0970652 0.30718333 -0.033359777 -0.2650485 1.248768 -0.20466736 0.40200704 0.14544275 0.20224437 1.392691 2.0406399 -1.2909851 0.41882542 -0.23883222 0.02852407 -0.8985784 0.62162006 -0.08335095 0.039968763 0.09816249
tena 0.14858244 -1.2704108 0.07805413 0.7898769 0.21320237 -0.6066496 -0.119827904 -0.3649059 0.64448845 1.3599818 0.62822795 1.1540933 -0.31190306 0.4083242 -0.1860138 0.50081366 -0.4082822 -0.70905626 1.1118326 0.56577283 -0.20614116 -1.7736259 0.26634085 -1.1853848 1.0545443 -0.66161287 1.1820412 -0.9284997 5.9162965e-05 0.6945978 -2.1886113 0.49530217 0.007858883 0.40604082 -0.52428585 -0.90785 0.14654216 7.0555334 4.8279095 -0.03530224 -0.35459018 -1.9549601 1.7076224 2.3632512 -1.1371869 -0.31843713 -0.15020776 -0.5578683 0.007819831 0.87764484 -0.08692607 0.71799755 0.44422644 -1.9536365 0.67335564 0.66301066 -2.0722828 -0.7675974 2.13883 0.5878776 0.5076289 -0.5752188 0.31219697 1.8063222 1.7821928 0.28927007 -0.2670673 -1.2034922 0.5596184 -0.713852 -0.7424017 0.27841973 -0.097420074 0.71136993 -0.059123322 0.9039307 1.1506374 0.22791232 -0.6827157 0.7714364 2.0397735 -1.1173983 0.2435204 -0.044491194 -0.14567427 1.1556293 0.15211028 0.19535807 0.22864492 -0.8056155 -0.40787342 2.607984 1.0213474 -0.3137026 1.6369828 0.82501376 -0.63276374 1.6738176 -0.48623645 2.758968
nyumbani -0.20342651 0.37374726 0.4263821 -1.1739223 -0.5035579 -0.3177305 -0.39683828 -0.42294544 -0.31140938 -0.37362894 -0.09552842 0.91179776 -0.6807296 -0.07089816 -1.2395196 -0.84465027 1.239461 -3.365337 -1.573487 -0.31120825 0.69857836 1.6036576 0.058858253 0.5428651 0.9228307 -0.7811808 0.20531635 -0.7248417 -0.51702857 0.36992407 -1.721961 -0.44865498 1.3306155 0.4428194 1.088368 -0.73818165 -0.15149227 0.6483753 -2.4681551 -0.2592777 0.29131523 -0.027700616 0.8860844 0.8640582 5.53225 0.90679556 -0.62175924 -4.246794 2.0270717 0.059692822 -0.73583657 -0.2585349 1.9143821 -0.5005695 0.25324088 -0.20222709 3.0416725 1.2051933 -0.75634253 1.5779723 0.87935793 -2.941066 -0.99479544 -0.06695344 0.0070073865 -0.39425296 1.4145 0.2773177 0.52948344 -0.5429865 0.25500908 0.2984599 0.7968692 -1.7970859 -0.7425368 0.81411994 0.09351392 1.185633 0.21570052 0.24633197 5.143971 -0.30538562 0.14099509 0.15508768 0.4797585 -0.6893339 0.01966487 -0.16253938 1.0841744 0.63822067 0.39550492 -1.9585888 1.0270708 -0.13498883 -0.4831566 5.765405 -1.4348148 -0.8136878 0.6363702 -0.75237525
ile -0.4603518 0.08586223 -0.36423618 0.3888369 -0.2379831 0.49238074 -0.20480116 0.45968977 0.9963902 -0.19746375 -2.9801419 0.57035416 0.7804991 -0.30075103 0.6158905 -0.07654752 -1.6288799 -0.14964934 -1.3877698 -1.506395 -0.34586048 -1.0307587 -1.3875453 -0.35941434 -0.39792708 -1.1795886 1.6456033 0.07255075 0.1250366 2.508676 -1.53894 0.83213955 -0.63382846 -1.1745776 0.17716664 -0.48427507 -0.79063404 -0.96340305 -1.0633087 -0.4660751 1.7279116 -3.0864816 -1.019368 1.8883914 0.794397 0.24115545 2.5176635 1.0487006 0.32911476 0.34169945 0.5892164 -0.8387264 0.8567975 -1.3048623 2.0514565 0.13986297 -0.03822747 2.2727828 -1.5216918 -0.88894033 -1.8906701 -1.0459994 0.13474813 3.0434098 1.2506794 0.24961218 -1.2692269 -0.2768745 0.061351404 -1.042576 -0.33027735 -1.1736575 1.0932244 0.089500256 -0.94298756 -1.0668373 -1.2903861 -5.8773346 0.1916821 0.024056103 -0.22708446 1.0590415 -0.04961391 0.535968 2.5409143 -0.4660926 -1.6663359 -0.08587141 0.6176985 0.18890601 3.8071306 2.7720861 0.8744459 0.26977712 0.5209167 2.6087918 3.3873994 0.56960696 -1.9998901 -0.35126773
hiyo 1.5796841 -0.47487935 0.16668549 -1.2910653 0.9387932 0.96281457 -1.9986466 -0.083875574 -1.4838073 -1.5533596 -0.67633945 0.022297937 1.2344034 0.48928124 0.09797974 -2.0578713 0.75506055 -0.2785342 -1.2081969 0.73405445 1.1362576 1.0954317 0.19609083 -0.1548809 -2.921393 -0.41887927 -2.1610408 -1.1872246 0.21878831 0.21670794 0.5900231 0.77195036 0.057140954 -0.4648787 1.0567709 0.99253994 0.42431968 -1.9350121 7.165888 0.23573127 0.6088941 -0.14647223 -0.6121693 0.039880577 2.0429058 -0.31600335 -1.0773501 -0.4655747 -0.2692241 0.5925307 1.258243 3.8728042 -0.18674675 2.0708206 0.27635568 -0.5062429 5.3533273 -1.2347003 1.4818207 1.0508742 1.2295611 -0.81841344 -0.060319472 -0.5476307 0.19585358 1.0560278 0.714567 -0.017930452 -0.9586134 -0.19548243 -0.19005054 -0.5337274 0.29907554 -0.17346644 0.28436172 -0.7989393 -0.019615447 0.4707963 3.8842309 0.053338006 0.31864163 0.66030335 0.79967225 -0.5639018 0.27934125 1.1100733 -0.5420142 -1.191909 0.8316355 -0.91673064 0.7329178 -1.4702028 1.6092715 0.11520311 2.6576266 -0.5061145 1.6571001 1.0965455 0.8136823 -0.32301465
mtu 0.27195945 -0.088842876 -0.041756995 0.40618038 0.533721 -0.8100386 -0.4945866 1.4081115 -1.4798336 0.031074982 0.27334943 0.9381857 0.18482628 0.050685145 -0.029286964 -0.46014038 -1.3974909 -2.5183964 -0.345138 0.116983704 0.6230404 0.31462586 -0.743356 0.73309785 0.81200206 0.1616781 -0.8238901 -0.52665955 -0.23256068 0.43350196 -0.04527614 0.7990988 0.6003017 -2.8517938 -0.2397774 0.075605504 1.7373894 0.5782958 0.7076652 -0.49461195 0.0048985668 -1.3383636 -1.823504 1.538624 1.792731 1.1752118 0.19713005 1.206418 1.0495107 -0.0893151 -0.31741217 -1.6304585 -0.01335882 -0.028209286 0.46183348 -0.8420182 1.4452909 0.36441353 0.6154142 -0.0891048 1.7679921 -0.97844535 0.53022027 2.7961676 0.4796272 -0.6530216 -1.7615622 -1.3357662 0.49209666 0.1737409 0.618377 0.09692818 -0.15918103 -2.6572843 0.14798467 -0.6469765 0.2774992 0.7660668 0.5876691 0.17923002 -0.38237834 0.12771666 -0.61387086 -0.9623683 -0.5533093 0.15021743 -1.3079996 0.047245312 0.9007236 -0.60400575 0.14390646 1.5383478 -0.59118646 0.3888254 -0.22313434 0.07803805 -1.065109 1.2778814 -0.04914535 -0.8929794
maisha -0.87924826 0.66589755 -0.633267 -2.4854283 1.7459148 -0.16726188 0.03535108 -0.014955525 -0.19384779 -0.5496828 -0.014221324 -0.21344174 -2.1751316 -0.32892317 -0.47827318 -2.2598321 0.03025454 -0.29987136 0.8184662 -0.81688535 0.33126065 0.7344116 -1.5433663 -0.10482178 -0.93286204 0.23856048 5.4056845 0.25816745 -1.277601 0.194552 -0.38490146 1.3662599 0.3095072 -0.15369111 0.8479573 -0.5359749 1.3370546 -1.195134 2.7136343 1.0604684 0.47828847 0.80790186 1.219268 1.2245854 0.9606134 -0.21851699 2.122942 1.3606157 1.2702599 0.44704705 0.018914573 -0.8179105 2.193901 0.10564852 3.1961362 1.0390023 1.4964337 -1.0661225 2.199202 1.8223628 -1.9498839 -1.8999069 0.44342527 0.011819973 0.53749764 0.2375605 -0.17200695 -0.13515955 0.09629283 0.30951384 0.53321165 -0.8364039 0.3447237 -0.9252205 0.37299937 0.5112618 -0.29087263 0.83746773 -0.24550585 -0.15315294 0.5293577 -0.6966872 -0.07110104 -0.43316638 -2.9112144 0.107974134 -2.2431529 0.8514626 -0.8866662 -0.003678945 -0.010544514 -0.2926659 0.7463004 0.17647995 0.297943 1.3390603 3.963367 0.5354265 0.95688313 0.20656918
jikoni -1.8000594 0.3196259 0.013910208 0.7974311 0.10203734 -0.76608485 -0.31089216 0.25982687 0.030537054 -0.744454 -1.2723186 -0.5634209 0.20311792 -0.33237165 1.0056641 -0.8970164 1.639343 -0.17922431 -0.01105547 0.9532592 -0.9416891 -0.5534623 -0.71918803 -1.5590962 2.3906693 0.776405 -0.4991959 -0.67993957 0.18406008 1.1745212 2.4595234 0.24080285 -0.9345398 -2.799094 0.45517159 -0.5983112 -1.2564412 0.12022757 1.6441 -0.060639262 -0.4726379 0.5910485 1.0599794 -2.1126895 2.1816342 -0.63370955 2.938478 0.09232493 -0.59143966 1.8120102 -0.041364517 2.1237876 2.2726908 0.79988825 -0.18029921 0.5675197 -0.0717278 -1.2432723 2.678101 -0.08860794 0.26154682 2.480105 -0.06607289 2.8797545 0.24350375 -0.39991328 0.039612114 0.654454 -0.08190428 -0.11742154 0.019388026 0.117342375 -1.0095048 -0.91072357 -0.48783135 0.9681425 -0.38945547 -2.1691356 0.24382181 0.21450154 -0.73293173 0.17415619 -0.095702335 1.4999965 -4.3700767 0.23576406 0.40354282 0.0722293 0.24897833 0.14013249 0.15372814 2.3471372 1.5562736 0.004359275 0.41165262 0.21184644 -1.9082186 -0.8986637 0.1459966 -0.30505398
alijibu 4.7240667 0.18635835 0.20247653 -0.025414288 1.0283537 -0.40418604 1.1893919 -0.62857723 1.5258838 -1.0880841 0.81411266 -3.8899794 1.5801579 -0.23126616 1.5753392 0.7872795 -1.140787 1.4681954 -0.7815999 -0.610008 0.0555349 -0.82872236 -1.7128065 -2.126271 -0.49983385 -0.44298205 1.7189126 0.13772845 -0.518816 -1.2029905 -0.46522525 1.5005405 -0.99622923 -0.22169663 -2.0232093 0.4341156 1.0157388 -2.7085238 2.9287329 0.50095826 0.6104745 1.740629 -0.9487498 -2.5985281 -0.45854202 0.019436417 2.4666197 0.92976606 0.77385205 1.1315064 0.3788084 -0.2291098 -0.32238635 -0.30007842 -0.7172111 -0.59916854 -1.803557 -0.58831936 -2.732327 -0.005553241 1.1724433 -2.6387043 1.8048089 -1.5987014 0.24152638 0.67367876 0.9729461 -1.8735195 -0.60371804 -0.6697894 -0.31576374 1.0398791 -1.8352672 -2.9463944 0.2162717 -0.17075694 -0.075372905 0.42458943 1.6908892 1.465786 0.93356436 -0.17170519 -1.3435668 -0.446522 1.9538319 -0.0036322281 0.42355406 -0.03540489 1.7659203 -0.10288165 -0.20267417 -0.66313773 0.22946121 -0.0035101518 0.23907483 0.76940817 1.4530694 -0.067967236 -0.06238537 -1.1023467
nini -1.1462504 -1.1813222 -0.5139375 -1.6035236 -0.5095147 -0.14655991 -0.47677627 -0.42798215 1.0544713 -1.6920601 -0.688426 0.07389476 0.15537785 -0.96522045 -0.38425025 0.33718967 0.1821301 -1.4118863 -0.8556047 0.4658869 -2.496138 1.2182255 0.706315 1.5002278 -1.0116751 -0.036462665 -1.1964365 0.10899507 -0.045593813 0.5440113 -2.8546305 -0.95450824 1.1370544 0.06697487 0.12624918 -1.4924093 -0.30824074 1.5738631 -0.66203386 0.3750931 -1.6884111 1.0737691 -0.052578412 -1.2144289 1.7657087 -1.3143313 1.1735361 -0.19106214 -1.2966748 -0.4043074 -0.33537593 -0.21883307 -0.5121992 -0.24862212 -0.2650201 0.2307172 1.5624582 -0.045711413 -1.4087276 0.674393 1.1538388 -2.8395205 0.2614603 1.9134207 0.64722335 -2.077213 2.407984 -0.07970798 1.059501 0.77649593 0.76143867 -0.1896199 0.033188153 -0.014982261 3.2031953 -0.8639828 -0.3060279 -1.1408572 1.0904557 2.0974436 1.2060823 0.65870535 1.1034994 0.068715565 4.5695844 0.092827186 -0.082787864 1.0071886 -0.0011997758 -2.5864263 0.8833636 -1.9976412 -0.30680633 0.3372342 0.6314467 3.0515413 1.3745769 -0.14937773 0.72521555 0.56878865
sasa -0.40226912 0.65186524 -1.3639734 -0.283069 0.68514454 -0.21868144 0.079151005 -0.60521424 0.5137097 -1.5668757 -0.545507 2.0540032 -0.16443983 -0.23438255 0.38657042 -1.1643615 0.6345615 -0.6676138 1.4262925 0.62032956 0.065625384 0.3315138 -0.9481571 1.1208398 -1.3864037 0.98304904 1.5938288 0.47648296 0.21731293 -0.54855764 -0.9869409 -0.5611018 -0.041122597 -0.49284282 -0.2521511 0.2255023 -1.1971114 -1.4572599 -0.97286993 0.46669373 -0.4784538 1.7413626 0.060993172 2.260498 3.008699 -3.7136824 1.5660056 -2.7296526 0.51432407 0.78849804 1.5363442 -0.82536554 0.69512 -1.7037534 0.38569948 0.5493543 0.9824664 2.5652192 -2.112129 1.0114903 1.4073713 -4.52113 -1.0732098 -1.4445316 1.5249307 -0.5930825 0.9036418 -0.73375165 0.141134 -0.9335054 -0.40680686 -0.13672216 0.505368 0.97977537 -1.3192205 0.13346125 -0.31429404 -1.5897858 0.7356817 0.39483422 -1.8115497 0.42005837 -0.6458527 0.98938584 -0.9669961 -0.71055156 1.4873626 0.9291134 0.003852458 -0.33938465 0.18261983 -0.6848479 -0.19927426 0.185503 2.4083633 2.1237473 -0.529641 -0.05441657 0.3316192 1.3808522
aliuliza -1.6499302 -0.8150704 -0.36316708 -0.20126918 0.9640111 -1.8023525 -0.5943401 -0.13432671 -1.9858127 -1.6122139 -0.57722586 -1.3590248 1.1033442 0.033921007 1.027719 0.14805944 -0.11701733 1.2936475 1.0149146 1.1829873 0.2845126 1.3290204 -0.682324 0.32998592 -0.44977865 -0.5462204 0.24241798 -0.75491184 -1.2225493 -0.17226547 -1.861513 0.3158557 -0.27133265 -0.7063506 -0.7405012 -0.72694033 2.2909157 -2.5994897 -1.0180589 -0.8024215 -0.23067838 1.4792244 -1.0711722 1.7896786 4.0530195 -0.08090833 -1.0339568 0.52318424 -0.17012917 -0.16891016 -0.0020899973 4.1309633 -1.2694416 -0.8715662 1.138728 0.44692314 -2.0381293 1.2015817 3.0736954 -0.7515201 1.0931201 1.350566 0.29976803 -4.133509 -0.34414425 -1.5767779 1.1478453 0.19798194 0.42628407 -0.41778505 0.16666774 0.23436826 -2.5763164 -0.8030355 0.33947155 -0.13061802 0.36408627 -1.5042609 -0.30876404 -1.7071543 2.5359178 -0.96213806 1.4080464 -0.46449378 -2.94576 -0.0030968254 -0.08342033 -1.4423856 -0.2503304 0.013526006 0.06368312 2.4789796 1.1032212 -0.92163336 4.0158324 3.1312888 -1.1386893 0.036054704 0.4673449 -0.8969304
cha 1.2358139 0.14578636 2.2203538 0.060811095 -0.51158327 -0.39119497 1.3884543 0.25797892 -3.3475728 -1.0707444 0.22128783 2.1055677 -0.4548123 -0.008795473 2.294041 0.26931497 0.17122567 0.66288793 -0.42479518 0.43529543 -0.4054047 0.3535021 -0.53539455 -0.6382596 0.9201661 -0.7893896 -0.8798928 -0.13172604 0.27399734 0.5079536 -2.0036447 -0.14774394 0.6658781 0.09315191 -1.7538835 -2.0576231 -1.446287 2.621369 -0.3858755 -0.12360274 0.2015239 -0.35029018 1.9312302 1.0002459 2.8933072 -0.63917404 0.90434843 1.5815226 0.031280067 1.5889282 0.0237478 -1.7853854 -0.12651443 0.6348975 1.1546878 -0.2033901 0.4272572 0.05891413 2.1956832 -0.23481059 -0.988494 0.8910988 -0.6553166 -0.20606065 0.79183334 0.29445893 0.83457726 -0.43131435 0.27093288 -1.133174 -0.29486617 -0.026960932 0.4382753 -0.00410127 -0.3822771 0.28602058 0.106661744 -2.253424 0.608795 -0.56340337 -0.89247537 0.96896404 0.33016208 0.46355116 1.0007541 0.43725327 1.3273275 0.18115288 0.6789666 0.073789336 -0.008767672 -0.74429685 -0.36590838 0.35408282 -0.5927489 0.84565544 -1.7578772 0.63339716 -0.67174244 -1.4065607
hivyo -0.76907885 0.028424678 -1.1725141 1.0158222 -0.29118124 0.8128846 0.015673714 -1.2952019 -1.2575322 -0.9712743 -0.44106826 1.1704245 0.7159493 0.06646336 0.13195632 -2.3254976 2.0974202 -1.0724535 2.0160484 0.717078 0.6911563 -0.49402818 0.24086206 0.1122615 -0.89859354 -0.86396676 0.948392 -0.08300083 -1.5850058 2.94848 0.7046362 -0.032324184 1.3537893 0.110291965 -1.481744 -2.1328082 2.4104397 2.2119312 -0.23409088 1.3232942 0.68160224 2.0903187 2.7269228 2.4942992 -0.4182387 0.21119194 -0.74837863 1.301312 0.31816202 3.6957023 -0.33428183 -0.85645545 0.90500927 0.12813486 -0.017966112 -0.0429447 -3.3760927 2.05272 2.3691607 0.3211459 -0.48747593 -1.2694472 0.80225253 1.7848053 0.040265583 0.6313961 -0.54055375 -1.5322682 -0.4574544 -0.5164174 0.32972774 2.3945262 -0.8021605 0.38354298 0.6478827 0.2871271 -0.63320607 1.2577823 2.4682653 -0.29458347 0.30434993 -0.9677362 -0.64131314 -0.30553228 0.0045692087 0.17504807 -1.8167121 0.95828295 -2.9690344 -0.19792587 -1.022534 1.1706374 -0.06800363 0.87108964 0.040020555 -0.5752546 6.9719605 -0.7900038 0.24497865 2.6735067
vyuma 0.92335206 0.6974525 0.09902266 -1.5983862 -1.2284577 -0.43355745 -0.40530849 1.7160499 1.0931693 -4.040105 -0.25950164 1.243225 0.16921678 -1.3684167 -2.4362676 0.66623974 0.7886744 1.591229 -0.33243096 0.71343005 0.9035309 1.9915502 -0.18720722 1.2964307 2.0514665 0.72113246 0.54721034 -0.085719906 1.3565142 -0.7094067 -1.0015624 0.09372973 -0.7800399 -1.5440623 -0.46510315 -1.7086298 0.4916258 2.7128656 -0.13658884 -0.062508576 -0.73393184 -1.6241217 0.22308299 2.4659154 -1.174173 0.081041746 2.3960207 0.37095615 0.14474939 -0.5571125 -1.5797973 -0.556648 -0.40582603 1.7273278 -0.27196667 0.20867845 0.998489 0.67033166 1.0892354 -0.26117355 -1.0281727 -3.4382136 0.24630292 -2.0201898 0.720501 -0.70283204 -0.5310465 0.37359965 0.5983363 0.31626076 1.1705581 -0.23879176 -0.83872074 -1.7619466 0.39629522 0.35781473 -0.03737117 0.48108944 -0.3358724 -1.288399 -0.047820184 -0.60106313 -1.8420604 -0.015741698 -6.3888383 0.8801845 0.024520347 0.00690009 0.512029 0.7245665 -0.38681206 0.8510921 0.25686225 -0.7736993 -0.037502903 -0.5885019 1.3369405 -1.1361423 0.046429496 0.07579038
akida 0.35292965 -1.1934661 -1.2475147 -0.22874273 0.020343648 1.1626105 -0.5895575 0.06636453 -3.0082114 1.6048791 -0.7012776 -1.319177 -0.20842552 0.83101845 -0.5835725 -0.39853823 -1.1950817 0.43128908 0.4327262 0.17249632 -0.5205065 0.97884333 -0.37727696 0.43522218 -3.415974 -1.7446496 -2.5278323 -0.8588836 -0.522436 -1.412813 1.2463595 1.2297174 -0.26701438 -0.6342309 0.434886 0.44302574 4.5674524 -0.63753986 -2.3007567 -0.82489794 -0.2485018 0.87618047 -1.4527317 1.7880548 3.4302456 0.80008775 -0.32396963 0.33294892 0.3534186 -0.43262348 -1.649703 1.9309236 0.07013424 -1.3249565 1.0912346 1.4992354 1.7596892 -0.29920638 3.002859 1.2051159 1.7001233 -2.508801 -0.57044625 -3.1534104 2.7729125 0.33144787 -0.42313686 -0.07194539 0.38696525 -0.89567643 1.4190603 -0.11514835 0.014681554 -0.44787717 0.38668215 -1.2828145 0.013008581 0.33876324 0.81247693 0.7575113 0.12500201 -0.862613 1.2320136 -0.7078755 -0.35321337 2.1001313 0.45007792 -1.6889343 -0.7951472 0.051304683 1.9276346 2.815367 0.2500039 0.15597987 0.20427662 1.234282 -0.6954882 2.9738252 1.3910275 1.138218
yeye -0.6011908 0.47118467 -0.7904839 -1.9197624 -0.45734 1.2207301 -0.49862245 -0.38902044 -1.08532 1.0742979 0.36383104 2.7053728 3.5691087 0.22271435 -0.6573968 -0.42244548 2.227846 1.4414015 1.3149117 -0.39099613 0.91611177 -0.1495031 -0.97061783 0.7510083 -1.5479758 0.112418875 -0.64565694 -0.2910444 0.18848151 -0.4686326 -2.2810323 0.3384981 -1.3761688 -0.33489436 -1.7002572 -0.09268348 -0.32865074 -0.5012624 -1.7041491 1.2987536 -0.10965782 0.061113946 -0.31661567 2.165147 3.824002 -0.16699475 -0.7660368 0.38786823 1.1040105 -0.5857171 -1.3047489 -1.8847182 -0.789337 -0.4018252 -0.48929262 0.2293331 4.2650757 -0.89375794 1.2903196 1.0543082 -1.5843266 0.37170446 -0.3375922 1.7748538 1.9966987 0.07359249 1.0284821 0.46465716 -0.3097779 -0.9590556 0.16681646 -0.37480852 0.40134493 -2.7229316 0.43563506 -0.6097973 0.2714744 0.6708829 -0.46218207 -0.8386313 0.20899782 0.5819763 -0.88624316 -1.6568329 -0.7136535 0.21773647 -3.081169 -0.03452017 -1.3384894 -0.6035777 3.948002 0.18278214 0.617591 1.2635815 2.663858 -0.6668634 -1.9069517 0.01337505 -1.078017 0.0041876473
juu -0.507656 0.21063122 -0.12239247 -2.4473774 1.9323554 -0.70914143 -0.38378042 -1.1709286 0.3808829 1.4360138 -0.72362584 -1.293786 0.6399556 -0.24844395 0.9775539 0.42599377 -1.9316989 2.5320601 -0.13117228 0.6465174 1.4265516 0.9425393 -0.23105995 0.71790856 0.6057418 -0.6131521 -1.9483066 -0.46212497 0.48390496 -1.0773418 -1.735141 -0.3535644 -0.90721697 1.143514 0.2997072 -1.0739468 -0.27021307 -2.8510773 0.16861801 -0.5655773 -0.016414238 1.171788 -0.67354447 -0.77847594 2.9340284 0.19927943 0.25482038 0.25107363 0.18701279 3.3019102 -1.539014 0.012346129 -0.39988917 1.839015 -0.3102914 0.45643076 0.60565656 -0.23993036 0.49468443 0.20236303 -2.2623186 2.0149915 -0.342282 0.15915276 -0.35686988 0.5843282 1.1888734 0.04737205 1.5453724 -0.96673137 -0.2442506 0.2365523 0.26011467 0.1861362 0.25489694 -0.06358991 0.05409401 0.3069458 -0.025896356 0.25278923 0.521101 0.95338744 -0.18647741 -0.23083256 -1.5171368 0.6968169 -0.6220463 0.6266222 1.2591394 1.3343594 -0.41009933 4.037488 1.1533306 0.7028054 0.53891 -0.84635496 0.6057013 0.0679527 -1.1595656 -0.13074474
chuma -0.9378204 -1.2711527 -0.7189889 0.5602402 0.23740096 -0.36098382 2.5350175 0.4139671 1.779245 1.1413035 -0.22713013 1.2796533 -0.15658423 -0.8087002 -1.051237 -1.5739932 0.8727946 -2.3337264 -1.5611339 0.4369826 0.89822763 1.3833411 0.32943383 1.2840917 -3.1137516 1.2882235 -2.4205754 -0.9848738 0.06297597 1.4642972 -0.88744277 1.188868 0.7465964 -0.82359326 -1.7996423 1.0146055 -0.4381247 1.3356519 -1.7560636 -0.021842394 -0.40130138 -0.5650089 1.4032807 -0.15755871 1.3720678 1.1666493 2.4271975 1.1595132 0.5787196 0.30094856 1.2804562 -0.53986126 2.0633392 -0.1553837 -0.6808579 -0.07720825 3.527245 4.6975822 0.7752161 -0.6953196 -2.3985913 -0.18461357 0.27222326 -1.0050521 0.4613587 0.411892 0.67716897 0.32651645 -0.016919822 -1.4862145 -1.8465446 0.26881486 -0.55534595 -1.8972756 -0.91750073 -0.16776706 -1.5535192 -1.2903398 0.5126081 -0.028381618 2.6807783 -1.2518058 1.0607803 0.6642101 -1.0001322 -0.060848434 -0.59770703 -0.7263137 -1.1020386 1.4358946 0.037042547 -2.3601036 0.15965989 0.2176199 2.0070384 -0.115553804 -1.2855338 0.55085963 0.9857083 2.8740504
pale 0.063578196 -0.19928943 0.15090913 -0.28526834 -0.5275329 0.052859448 0.6277306 -1.633349 0.040020008 -2.8677034 -0.010316535 0.1310514 0.10895388 0.6461228 -0.5019117 1.7628739 0.592039 -0.1463678 -0.4217278 0.39616627 0.1641687 0.8013363 -0.5768095 0.8689509 0.8892146 -0.3232829 -2.6557038 -0.0029848323 -0.027347114 1.1396362 1.1425244 -0.19872877 -0.4151013 -0.21181938 1.4313151 -1.9612405 -0.3624438 -0.05079886 0.25828978 -0.20481592 0.5989611 0.51747316 1.2255205 0.25703275 -0.9114505 1.0369751 -1.5476868 1.9653219 0.38463822 0.26244962 -0.28507173 -0.6511956 -0.1581008 1.9411846 1.1759883 0.25770488 -0.031566225 0.28196162 -1.8565311 0.021876905 -0.8789818 -2.1288822 0.38126293 -2.257494 -0.45724094 -1.1972513 0.6320682 0.8190419 3.1962976 -1.4122493 0.5184004 -0.7570944 -2.8893566 -2.340013 0.3924278 -0.2239429 -0.97195697 -2.0224206 1.4934055 -0.27421638 0.8529539 -0.9685953 0.5899932 -0.6793301 -3.2963696 0.63075787 -1.6635672 2.0887535 0.9770573 -0.467684 -1.4271396 -1.549487 1.0768456 0.004725509 0.45645475 0.6806824 -1.2267488 -0.44115815 -0.26280072 0.8831309
wakati 2.3455098 0.22745484 0.85656965 1.8622928 0.9574211 0.025658842 -0.75351936 -0.32610717 0.72523636 0.12811767 -1.4312361 -0.19201608 -0.22589481 -0.9965853 2.4046965 -0.16705734 1.6460339 -0.70438117 -1.0014997 -1.0696826 0.44576994 -0.47110948 0.20425797 0.69717604 0.9211165 -0.8598888 -1.9431304 -0.22686681 -0.054821793 -0.9367581 -3.3972669 -0.5085029 -0.086469 0.35256037 0.084192395 -0.6574068 -1.6100008 0.6577689 -1.7528758 1.5164486 -0.3461683 0.836858 -1.2757013 -4.6726675 -0.8512221 -0.6693018 2.1433928 0.033600025 0.52856255 3.1357179 1.4953693 -1.1688467 -0.58606774 0.996414 -0.0152316885 0.44984573 2.458297 -1.2133119 0.58667606 0.35878295 0.44044116 -2.046479 0.92265606 -1.5795794 0.05880364 0.70468795 1.1875012 0.49505004 -0.9596031 -1.2971207 -0.12353193 -0.43349677 0.2565615 0.36252224 -0.28207743 0.4644754 -0.0048765414 -1.751036 1.6876869 0.40936795 -1.3854293 0.11797659 0.71598333 1.1306775 -2.1355503 -0.7473757 0.90400136 -0.17975007 -0.729864 -0.637789 -1.2751471 1.2647715 0.8684714 -0.38415256 0.51103 -0.91589004 3.788123 0.16325334 -0.53281236 -0.2490958
sana -1.246435 0.7771521 0.23488292 -1.084458 0.0483351 1.5456688 -0.0107663665 -0.36524698 1.0696071 -0.7884951 -0.26330236 0.9464914 0.38770294 0.3833041 1.6004198 0.8414668 -1.3146572 -3.6080854 1.264779 0.8684671 0.096833736 -0.40161014 -0.7587904 0.30151698 0.16291384 0.00038437938 -0.006335987 0.070972174 0.6332265 1.3120434 -0.84632534 0.26975334 2.240324 -0.105608925 0.3020171 -0.07967425 -0.45345184 -1.3823291 0.39629385 0.3129772 -3.634715 0.41071388 1.8546009 0.10594539 -0.064199604 -0.6423316 -1.339798 -0.22043638 0.8365092 -0.028285334 -0.964353 -0.78854936 1.4324414 1.5148435 -0.4838171 0.16920088 0.38771456 3.890566 -0.28211552 1.3861749 1.3224883 0.5648803 -0.7242046 1.3215346 0.7000536 1.3760391 -0.64705753 0.15000422 0.32727572 -2.4122365 -0.24157803 0.23050965 0.18781208 -1.0158784 0.26132226 -0.6189057 -0.06180825 1.2156737 0.15516888 -0.3480789 -1.1443064 0.0059440816 -0.17778741 0.69480985 -1.3347912 0.18123922 -2.3703754 0.10443314 -0.597853 0.3740202 -0.9293317 2.679168 1.0406927 0.9397401 3.293098 1.0639452 -0.6177475 1.4317011 0.2398576 -0.31648573
wafanyakazi -0.47466874 -0.06391994 -0.28722727 0.18996815 -0.4326317 -1.608861 1.5494988 -0.8690771 1.2272983 0.6624739 -0.7656657 0.696665 0.6506775 -0.029423885 0.098212644 0.80724025 -2.5027215 -4.9189563 0.9248235 0.3088981 -0.1994423 -0.39970452 0.31858015 0.5453036 -1.2213806 -0.69869983 1.6406974 -0.5213825 -1.223863 2.2462738 2.2248113 1.5971174 -0.826323 -1.716798 1.3790311 -0.110040665 -0.5926151 1.0347995 0.2346999 -1.287724 -3.2285478 0.83753777 1.0183119 0.054336745 -1.370183 0.090641536 -0.86625046 0.96615225 -0.8117725 -0.2284749 -0.47477737 -1.2604517 -0.3540576 -1.8055847 -0.36359644 0.57769775 5.0585394 -0.8796093 -0.8421225 0.6878836 1.6237222 -0.06981489 1.4372355 1.7375022 0.32784182 -0.9387458 0.147157 -0.009046891 0.19896261 -0.51034313 0.8436467 -1.1314615 1.2232808 -1.4602009 -0.907269 -0.21332936 -0.78111446 0.53099203 -0.011838713 -1.8598945 -0.09116034 -1.5116568 -0.6248764 -0.45154703 -3.4613214 -0.49418628 -0.5132506 -0.44993734 -0.4351333 0.13905676 -1.855142 -0.8589279 0.1765073 -0.650022 1.9568442 1.1507647 1.2906646 2.2139113 0.49985474 -0.40838084
la -0.6987924 -0.8388622 -0.008109953 0.6119977 -0.74559313 -0.66522956 0.5753044 -3.5667593 0.37932006 0.7061787 0.27695334 0.9793194 0.5717331 -0.06941502 -0.42983747 -1.4481579 -0.017572561 0.2659886 -0.2732324 0.39113125 -0.4887171 -0.26556018 -0.8226848 0.8913649 1.9386559 -0.62670004 -1.7361164 -0.4212205 -0.23405454 0.94594294 2.6566672 -0.2987727 -0.1496743 1.0850855 -0.17176796 -0.047150344 -0.5103079 5.415154 1.9302318 0.5217348 -0.13137127 0.814661 2.8842075 -2.2638674 -1.4940474 0.25119862 0.43941677 1.6247965 0.626988 -0.4564785 -0.34222293 -0.7031618 1.1901062 1.1913698 0.27882335 -0.051856395 3.2354853 -1.3972865 2.0739677 0.7750773 1.9734652 -0.53487253 0.617995 2.4226751 -0.71577895 2.893196 1.7944005 0.14517502 -0.0039581973 -0.27747518 0.23346937 0.3579187 -0.028527614 -3.7863646 -0.07124336 -0.08553801 0.123838484 0.21509838 0.51812154 0.4457435 -2.0043597 0.16165951 -0.6469087 -0.22109437 -2.1916878 -0.60581505 0.16487525 -0.5136283 0.3063192 0.15876035 -0.81967986 0.6480776 0.7318151 0.71237737 -0.20758238 0.3432156 0.37400502 0.63260555 -0.4285379 -0.91492593
kwani 5.483764 0.4154757 0.15812218 -0.1287555 0.048049357 -1.2993263 0.22782189 -0.8138788 0.5618483 -1.040188 1.7739732 1.7972379 -0.43518093 -0.5154154 0.05230432 1.1167886 -2.3683577 -0.69388944 0.44621018 0.98779994 0.052547533 0.17147593 0.8395705 0.61348003 -1.6211393 0.28475156 -1.8966633 -0.83297014 0.49377933 0.28738052 1.0493375 -1.8550361 0.8688808 -2.1588228 0.04314989 0.93396795 -0.55311626 0.6605327 0.27227202 -0.27082437 1.1607443 -1.0249234 1.0082726 -1.7622482 -0.7151945 -0.3445301 -0.115364544 -0.6722927 0.90430665 -0.32131627 1.129722 -0.44953278 3.5593848 -1.8150305 -0.41916752 -0.3609303 3.1722703 -0.8539972 -4.2105107 0.43235737 2.291163 1.6051673 -0.015638534 3.1018221 0.7168996 0.2516911 -1.006352 -1.9730855 0.45344186 0.16879801 0.031446144 0.06777152 -0.3734847 0.55341727 -0.5232091 1.5224755 -0.309533 -0.3206931 0.03938577 -1.7596077 -1.4467189 -0.19635026 0.039650965 -0.049877357 -0.564637 0.76298785 -0.17457595 0.1816908 0.4769049 -0.315281 -0.8358936 3.7553525 0.40824565 -0.21465823 0.21653229 -0.08572627 -1.9949323 0.10513057 0.05127774 0.15993749
hata -0.8947871 0.62954116 -0.73855066 -1.1055999 -0.4362622 0.28918093 -0.72621864 -0.8315894 0.80725205 0.71923584 0.000372327 1.314715 -0.27385542 0.7211258 -0.63919824 -0.83567494 0.641173 0.7341141 -0.5144957 0.20085503 0.5415089 -0.9833827 0.00035562075 -0.14610006 -0.22830124 -0.34544504 -0.20580626 -0.83941984 -0.29338846 0.5100354 -0.17605786 -3.5109584 0.62604403 -1.6142853 -1.2819234 -1.3627719 2.2602935 1.5560955 -1.8736143 -0.18231012 -1.6195344 0.39907914 2.4315176 -0.15858097 4.550181 0.14977184 -0.222423 0.7845107 -1.6894208 -1.1609032 0.35901332 -2.024929 4.113667 0.17721334 -0.2846843 -0.7965647 2.6558328 1.742263 3.1149135 -0.27075332 -1.3514843 0.990672 0.033920143 2.4907537 3.0721734 -0.44701356 0.38415584 -0.27316284 0.82556206 -0.348464 0.9914597 -1.387197 0.3896794 1.26214 0.38597378 -0.4906217 0.5858506 -1.8649173 0.69661885 -1.0088058 -0.60996765 0.0018576658 0.7865361 -0.28476262 -2.05566 0.6088844 -1.0575445 -1.1772188 -0.8729705 -0.38185105 -1.3799859 2.7849104 0.18579781 0.7992 2.6045747 0.8251848 0.12948652 0.12344317 -0.56663924 -1.9013836
mara 2.2917585 -1.3254365 0.3478592 0.07017905 -0.023481287 -0.15234561 0.6934241 -0.40308183 1.0757635 1.3240899 0.28727084 -2.6232958 0.44718415 0.28157136 -0.13875334 1.0870562 -3.6582541 -0.021740006 0.56291795 0.35119328 0.9769658 1.633864 -1.0039827 -0.7844757 -0.47107223 -0.6762397 1.3155537 -0.1334557 -1.0818989 2.9715717 -1.321956 1.791312 -0.5724379 -0.026769701 0.89037246 0.28017235 0.7677533 -0.29736316 1.1426947 -1.1483247 -1.1616809 -1.2971623 2.0698533 -0.14008495 -1.1451778 0.41173548 -1.1555878 0.5489934 -0.8498633 0.2206627 -1.9668365 -0.5944906 -1.6258483 -1.4409913 -0.13503104 0.6913011 -2.5922272 -1.6023217 1.9113833 0.059928436 2.4290032 2.2709053 0.21723743 -2.7625127 -1.6548942 2.6223335 -0.71875936 -0.3075726 0.13508548 -0.6422889 -0.29122412 -0.15875472 -0.7527203 -3.122907 1.3531312 0.356224 -0.5479144 1.6363153 1.5357468 -0.22888295 -0.92313147 0.84170985 -0.15708172 -0.87976503 -4.8643713 -0.07529708 -0.7234996 -0.45955473 2.6483197 -1.0231481 0.8177933 -1.2633326 0.6786926 0.7226996 0.28459373 -0.21858098 1.1418654 -0.55117023 0.1276485 -0.58959
fanya 0.3397117 0.54117465 1.062045 -0.29005554 -0.0903397 0.0075172875 -0.56776077 -0.58310306 1.0852289 -0.13190824 -0.8973309 1.6685733 -0.04205824 -0.40458995 0.45922363 0.16910863 -0.03555731 0.06415533 -0.19613819 -0.43611383 0.042602554 0.32258165 0.61752725 1.5598631 0.73542005 0.6981413 0.06654063 0.62990177 1.9401456 0.6581674 -1.4782044 0.26380423 -0.46975896 1.6332419 -0.7184188 1.6347119 0.39745393 -1.2684432 -1.0697523 -0.93958944 -0.55330336 -0.024775773 -1.1638974 0.58464766 -0.41690013 -0.4950058 -0.69525546 0.56287897 0.91364837 0.5268331 -1.5481074 0.6964209 -0.004259133 0.18794787 -2.0702848 0.8022132 0.2291667 0.05916844 0.050316155 0.6444925 -1.4882114 0.5914705 0.20851392 -0.46457726 -0.5934247 0.41237214 0.769532 -0.040812787 -0.12640408 0.90685165 -0.03828718 0.5526579 -0.026285943 -0.43139452 0.28851727 0.54004973 2.3050916 -0.006712755 0.19910821 -0.54202706 0.04797322 -0.4191155 1.3067243 -0.79378384 -0.00775834 0.34689957 0.63769287 -0.37826225 -1.5384916 -1.1168901 0.024593307 -0.56737095 2.9031627 -2.8632505 -0.23840137 -1.4167467 1.328543 -0.3953637 1.1588187 0.13962297
mazoezi -0.69938576 0.6112033 0.9497785 0.15087833 1.3467556 -1.2008917 -0.80641377 -0.10532755 -0.0830178 0.74875855 -0.2317034 -0.13279346 0.32632744 0.67178506 0.43496415 0.46451578 -0.13694234 -0.54943985 0.72493416 -1.0018028 -0.33261305 1.380875 -0.02570688 0.7883911 0.7776724 0.04566522 0.21608147 0.52905136 0.13576362 0.3678245 -0.070355214 -0.6216036 -1.2524709 1.0446116 -0.07858763 0.13422069 -0.97666264 -0.23009107 -0.6303414 0.5161176 0.032967 -1.6257759 0.1667414 -0.022114366 -0.5532362 0.17298207 0.7450104 -0.09070498 0.40991855 0.47882038 -0.24014182 0.5263992 -0.11811881 -0.43583363 0.20871173 0.29710776 0.45948032 -1.202739 1.1916583 0.1714162 0.4552595 0.6025758 -0.26833928 0.84453845 0.54676235 -0.6679407 0.11036086 0.022062121 -0.33919764 1.0570562 0.069252245 -0.16054669 0.3873915 0.23285715 0.38656732 -0.6891837 1.0086653 0.21878624 -0.5077004 0.20822044 0.40721446 -0.3127008 -0.57240456 -0.26444453 -0.6235419 0.60473686 0.6646463 -0.12780637 0.2684604 -1.3373797 -0.94212574 -0.3674807 0.13373415 0.06817585 -1.3573092 -1.3349675 -0.101293564 0.36158997 0.27693546 2.1746101
kwenda -1.4878165 0.5759442 -1.0406824 -0.44535616 -1.8998706 0.4097386 0.031147107 -0.44563147 0.66923535 -1.7209829 0.010909001 -2.400348 0.42456648 -0.40465635 -0.31681755 -0.65304166 -0.43513292 0.13355145 0.5448396 1.3726541 0.83986187 1.36507 -0.053872153 0.04182117 0.5810417 -0.45905432 -0.93061715 -0.42625207 -0.16177839 1.3574971 -0.33637127 0.5266762 2.1326687 0.3427502 -0.20085849 -0.50511414 0.8554524 -2.2157316 4.6719418 0.56532145 0.2190597 -0.23892649 0.5333322 0.916613 4.578842 -0.702482 -1.1355319 1.1890016 0.6577389 0.15715349 -2.212481 -1.9322854 0.44410917 2.4381893 0.3859223 1.0829875 1.1173217 3.0026748 -1.9339422 0.8919409 1.5887595 -0.9497528 1.3864144 2.7508001 -1.0365158 0.55501837 -1.4409659 -1.3899596 1.2275848 -0.9449463 0.2298006 0.6792837 -0.3457884 1.8651263 0.3797303 -0.13891877 0.78303486 0.31028423 -0.22696902 -0.16245578 -0.88637894 -0.029373553 -0.6934074 -0.10384159 -6.319954 0.033483036 0.4608243 -0.7780444 -0.51733625 -0.62793165 -0.05957303 -0.8961686 0.2757689 -0.2704666 4.0394483 2.0825102 0.27306992 -0.18519922 0.8668854 -1.2766563
si -0.30308756 -0.87905806 -0.08436911 0.49309933 0.012192875 -1.2151479 0.6511219 0.5357769 -0.7754697 0.46674815 -0.6919943 1.5756073 0.7937022 -0.2833585 0.44459513 0.5122089 -0.06423511 1.279584 1.2574357 -0.07537032 -0.38962093 0.9531149 -0.13930365 -1.714963 -4.5469785 -1.2142831 0.62805593 -0.13658914 -0.8566154 3.7262993 1.2764581 -1.2382009 -0.5827631 1.0010061 -0.5755372 -0.38310385 -0.3981839 -2.2177916 -1.3668172 0.3588719 1.3285089 -3.3956523 -1.5697402 -0.23792204 -1.8928759 -0.21873379 3.0969045 1.5003521 0.24795775 -0.10135301 -0.31996903 -1.2808608 0.68436944 -0.29481918 0.43943492 0.035362467 0.44950783 -1.143241 -5.8947678 -0.09668995 0.7598221 -0.7883232 0.05036909 -2.605411 -0.613088 0.2508163 -1.3425719 0.97850484 1.526446 -1.3640285 0.48135862 -0.39982435 -0.32614675 -0.022743749 0.6049434 -0.2125143 0.09084267 0.7570499 -0.2742907 -1.6108552 -1.5022529 2.334236 -0.28907204 -0.94797957 -0.80951047 -0.22713439 0.9165689 -1.1873759 0.5524018 -0.14145161 -2.0583885 -1.0833535 0.54433596 0.15546262 -0.065611586 1.055806 -2.8329592 1.3603373 1.3929445 0.33374155
chakula 4.117086 -0.9112661 0.20634556 -1.3390932 1.1702868 -0.45830283 1.2836969 -1.0925713 -1.6138209 0.18432866 -0.013150601 2.2466912 1.4720781 -1.4421263 0.024460858 0.75839657 1.3408163 -0.9669674 -0.85668343 0.64393145 0.22256002 0.15756887 0.025495874 -0.81950444 0.863814 0.99957126 -1.6773882 -0.5019658 0.47835508 0.095662266 0.94149935 -1.4378312 -0.6807468 -1.3805394 0.18010537 -1.2265595 -0.37393227 2.9555092 -1.1844587 0.92073923 -0.4022665 1.445375 0.55572075 1.4011269 5.2996035 0.6890114 1.8008676 -1.360093 0.28789493 -0.57789755 1.8735225 -0.7021952 -1.8539239 0.9544352 -0.6584204 0.61162627 -0.1818361 -1.542976 1.1677141 0.66842043 1.4574596 -0.14544642 -0.5936122 -1.2943547 0.363896 0.29771924 1.2664158 -0.1383962 0.121857285 0.038182024 -1.4160254 0.4986834 1.1485584 -0.8763945 1.064646 1.0697243 -0.879966 -3.1964843 0.73717076 0.39533126 -0.63333136 -1.1655443 -0.073029354 -1.2075754 0.0010374121 -0.33585763 1.203079 -2.4060223 0.3630465 -0.21294442 0.4475709 -0.118114814 0.8278757 0.5758519 3.8001394 1.2052945 0.54907244 1.0739015 0.6723992 0.8811833
hicho -1.842294 0.3828117 -0.7540331 1.4206967 0.11921586 0.18592413 -0.77363104 1.2167512 -1.435152 2.3282769 -0.91108453 0.1308759 -0.45448214 -0.4423208 0.04432101 -0.003696624 -1.3835043 -0.61493355 0.13180053 0.16105147 1.1296413 0.3974964 0.41596597 0.24156596 -1.3456903 -0.26031852 -1.5299054 -0.50073445 0.8109732 0.40945807 2.2149177 -1.1561419 -0.81080514 0.05773709 1.3280742 -0.07482959 1.932662 1.9845898 -2.6218336 -0.88042116 1.0647511 2.07146 0.8276941 -0.11048998 2.7167072 -0.9997845 -0.045688473 -1.8442502 1.0179887 0.0308586 -0.70144916 -0.4554193 2.5190053 -0.48137242 -1.7547508 -0.50348604 -0.14432546 0.94645226 0.8814371 0.938502 -0.0727351 0.17048262 0.07414739 -0.73602307 2.1698184 -0.22786534 1.4693854 -0.053213164 -0.5819978 -0.68994284 0.6407779 -0.52233016 0.17194766 -2.6996534 0.6957543 -0.8877371 1.2596334 -1.2992321 -0.90040016 -0.71841407 0.17788862 0.33023697 0.32462394 -1.3638977 -7.0768013 -0.1396745 0.25846803 1.3719913 -1.235897 1.0131953 2.0148628 0.7592222 0.22041258 -1.2109756 1.0123197 1.4085884 -0.5768281 -0.36974707 -1.3459576 2.3080313
nje 6.3429203 -0.68652576 -0.17034027 0.993547 0.45523307 0.1757133 -0.321021 0.1765648 -1.2172724 1.3730559 -0.25297147 -0.09494265 0.72157127 -0.7444626 -0.65460205 0.07383851 -1.4144019 0.53500587 0.9164593 0.109890155 2.067623 0.9570795 -0.08626821 -0.5374511 1.791591 -0.24867737 3.8447964 0.6100929 0.75102866 0.77498657 0.9210456 0.41286817 -0.93406326 -0.06781771 0.75779086 -0.38830954 -0.9456362 -1.2423204 0.5619247 0.76173717 0.8060121 1.3216931 0.009160206 0.6336004 -0.88128376 1.3665864 -0.35247946 -3.9652753 0.40234017 1.0555744 -0.79996127 -1.017464 -0.1254537 2.2044609 -0.009701097 0.37773097 -1.9841198 -0.41363367 0.20192459 0.13804595 -0.28918618 2.5394254 -0.53981334 -1.7135068 -0.8484368 0.99011123 0.38406 0.6749983 -0.32371765 -0.8523031 0.16666022 4.211931 -1.7696415 0.6439608 -0.8397963 -0.43684772 -1.8919958 1.2749484 -0.19768852 0.1291708 0.33761424 0.013752513 -0.3089473 1.0955036 -2.0648923 -0.034793306 1.4384137 1.712788 -0.008832516 0.20850103 0.71149147 -0.5394959 0.43815583 -0.7795016 -0.33355963 -1.5188397 1.8399305 -0.28881025 -0.40321827 -0.11295546
aliyekuwa 0.10063257 -0.062423423 -0.089519195 -0.68107456 -1.8544241 0.34917024 -0.056220558 -1.5696282 -0.719626 0.7262885 -0.04242334 2.0775445 2.6726315 -0.0073249494 0.19709775 1.4401339 -3.4978514 1.0714687 -1.2633835 1.0808438 -1.9421424 -0.82403487 -0.43640426 -0.044283904 0.9948305 -0.7379536 -1.4221972 -0.7216737 -0.22523855 0.21045431 -2.2691143 -0.58700126 -0.7814698 -0.4386066 0.40840152 -0.23662049 -0.0029440569 -1.285499 -1.1775326 -1.439724 0.17233464 -4.0465703 1.667045 -0.9100489 1.8411094 0.10841615 -0.87959194 0.4469431 0.5178769 0.5866183 -0.31788766 -0.14984472 -0.7206144 -0.9687534 1.123738 -0.14261214 1.502566 3.267178 0.5774032 -0.18060271 -0.04553951 1.3337926 0.3368615 2.4529552 1.0348476 0.16055514 0.70921224 -0.22373478 -1.2819424 -0.06803657 -1.1620296 -1.7775881 0.8123664 -1.3943996 0.66122806 0.25038671 0.44917914 0.75511837 0.03199505 -0.8451927 -0.60626435 -0.522015 0.022139039 0.8062519 0.35830984 -0.82813483 0.12464318 -0.196005 0.6565399 1.1394746 -0.44402397 3.2993705 0.4159494 0.80046755 -0.5714972 -0.7371024 0.63008696 1.2026358 0.0914533 -0.6568524
kwanza 0.3773446 -0.1850532 -0.03864445 -0.44433132 0.37095544 0.30397072 2.516637 -2.6999772 -1.1361954 0.38144472 -0.22179143 1.9020993 0.9547634 -0.017175961 -0.21988238 1.3306682 0.52778995 0.7873916 0.25714475 1.4136482 0.33513236 1.7489902 -0.22263514 0.7340674 0.31832275 -0.6133321 0.5346739 -0.7721535 0.01311821 -0.009345142 2.884507 -0.29346228 1.2921623 -0.6863202 -0.7450771 -0.740767 0.019788291 -0.95690984 -0.6840875 0.4864569 -0.041620284 0.049485624 1.8093013 -0.03677776 -0.4924717 -1.7073605 -0.22975598 3.9053233 0.24223855 1.0671605 0.5789083 0.19455867 1.2831146 -0.99084353 -0.00029776746 0.4703943 0.77436477 -0.09774072 -0.3942035 -0.623013 1.3761483 1.6987361 0.19940034 1.5822991 0.53087544 0.7248549 -1.1255604 -0.42388508 -0.045104846 -0.9096432 0.9452932 0.10607348 0.445079 0.045460522 0.2635251 0.39848548 0.28271624 -0.18374662 1.220156 -0.74617594 -0.72564733 -0.008120266 0.26310405 -0.39762905 -0.5592326 -0.23612934 -0.22157261 -0.23469648 -0.056628503 -0.051788718 -0.8551347 1.4025762 -0.2028894 1.208708 0.93831265 0.00039510138 -0.4494899 0.7686722 0.36435884 -0.7110221
bado -0.8867644 0.4549183 -2.2973301 0.16665061 -1.0191226 -0.7813672 0.6711739 1.3679506 -0.16151415 -0.08409347 -0.081653304 -1.1936702 -1.8634336 0.30169547 1.9335873 -1.8521245 -1.1077014 1.5962211 -0.1798789 0.2973093 -0.29174897 -0.96907645 -0.25134537 0.69047153 1.7975417 -0.8919373 3.2743952 -2.331543 -0.0943022 -0.35671857 2.2685819 0.3265768 -0.7804493 -0.68575174 0.89778805 -0.35613307 -1.3996509 -0.64030075 3.1924384 -0.87577385 1.2750853 -0.4774645 -0.6151937 2.100921 1.0364811 -3.5679955 1.7429243 -0.5598196 0.18320423 0.30555496 1.2603087 -2.4205952 -0.36131153 0.2219177 -0.013520281 -0.55428976 -0.07748325 -0.6286881 -3.4266057 0.5506294 0.8218683 0.07366158 -0.74432003 0.17930926 -0.006357182 0.60543364 -0.1874976 -1.6317967 1.6916702 0.342593 -0.67994034 2.478275 1.6195985 -0.98823357 0.038418934 -1.1346321 0.50062937 -1.1421175 -0.07788978 -0.7091359 0.4969416 0.094019815 -0.14238776 -0.98816735 0.30633277 -0.9997256 1.5514169 -1.6682925 0.7880824 -0.2372823 -1.4261876 -0.11989408 -1.3734618 -0.9739113 1.6308758 -0.030465055 -1.4961209 -0.6418904 0.34093833 -0.9214786
ukuli -2.3451965 -0.31500867 -1.080475 0.16362737 1.0657771 -3.0301795 1.3100916 0.37116545 -0.21620324 0.47169814 -1.0329914 0.9518864 -0.37221366 -1.1975259 -0.2001732 0.21940151 1.7708803 -1.4381537 0.4102534 -0.8233218 1.4467986 2.2332141 -0.7031664 1.6514966 0.45895898 0.24002731 -0.5753538 0.060710963 -1.2024646 0.20130616 2.3262541 -1.3819934 0.20439303 -1.6114186 -1.3974645 -1.4629644 0.171638 -0.6662552 -0.29693148 0.011123598 -0.8576959 0.4080771 -0.7865681 -0.039201982 -0.5364875 0.55154103 1.1412401 0.041236494 0.6822099 0.2824784 -0.76149786 -1.1856208 0.9674869 1.0050932 1.2234324 0.38215622 3.0029156 -1.1790088 0.6479643 -0.33101565 1.1308091 -1.32444 -0.09468231 1.7841504 -0.6914257 1.6874174 -1.2052114 0.34969288 3.1885002 0.8707067 0.21104905 0.089639604 -1.1402746 0.17176066 -0.21173139 1.006735 -0.41609946 0.5711964 0.97583723 -0.16816632 0.51643324 -1.2660875 0.13092445 -1.1529528 -0.88089454 0.15179661 -1.2163484 0.9966789 -0.22209501 -0.13005921 -1.3791509 -2.0154223 -0.06398965 0.7017419 1.0064132 0.069757335 -0.5822469 1.1674308 0.2804371 -0.42634073
hii 1.0310162 0.9900365 -0.84493756 -0.7585974 -0.46108043 0.76384306 1.1684538 0.7550848 0.6158698 1.1952592 -0.5032965 1.3763171 0.24937584 -0.13178666 -0.5269141 -0.8554706 -1.5419534 -2.0341485 -1.2579387 0.44150063 0.6852821 -0.8964398 0.05285297 -0.3432642 0.6080745 -1.1797037 -0.4455959 -0.49516994 -0.38702092 0.8836335 0.36766002 0.7648629 -0.8230424 -0.49716794 1.2265482 -0.8701012 0.051485162 0.0045081414 -0.89779955 -1.0699201 1.8882489 1.1886997 -0.6348653 -2.4799657 -1.0254686 -1.1538612 1.8530017 -0.8893497 0.32051298 0.1775601 0.61727303 0.0072499355 0.7358919 -1.0234834 -0.123827755 -0.036214165 2.131681 -0.009298134 1.4198965 0.8793717 -0.061675355 0.36752024 0.32791686 1.5416017 -0.60644764 0.2716041 -1.94318 -0.067858785 -0.25736302 -0.70491934 -0.6640362 0.43083656 -1.0467439 -0.7529564 -0.13814142 -0.08558673 -0.38624933 0.33060604 2.7714503 0.679019 0.24743588 -1.5673267 -0.76487476 -1.4399419 -1.4129112 -0.9774881 -0.45228356 -0.47235486 -1.5218625 2.4282587 -0.913715 1.9400446 -2.2090943 -0.48589125 -0.53696215 -1.1412662 1.9265649 -0.38300547 -0.20213707 -1.8139635
vizuri -0.646676 -0.440485 -0.43985364 0.51367664 -0.09152973 -2.3216786 0.46536788 0.7335036 -7.1914387 -0.016421858 -0.95518386 1.19415 -0.48404288 -0.29196683 0.45191637 0.09289643 -0.96225363 -0.1520816 0.6681551 0.9447501 0.66998285 -1.1826667 -0.28274405 -0.784251 -0.9699127 -0.7953328 -0.7159358 -0.78042006 0.32939965 1.1762723 1.8374358 0.020876197 -1.0732654 -0.9129129 1.1796995 -0.014369647 0.5145161 0.13483809 0.5319024 -1.6329911 -0.38228786 0.86820155 0.6245393 1.5876044 2.2591455 0.18357684 -0.095327556 1.0587918 1.1580282 0.37789437 1.0904274 -1.0956469 0.10859452 -0.87017584 -0.19481838 0.59215564 3.855499 -0.3688925 -1.319506 -0.35951617 -2.688098 2.0708818 -0.34345827 1.1872822 -0.4580675 0.5454733 0.81205916 0.07529288 1.6343703 -0.85476005 0.50835603 1.9341152 -1.5350628 -2.7133641 0.35558435 -0.15030271 -0.041204024 -1.1771114 2.7062957 -3.2377088 1.7083178 -0.039606042 0.18194926 -0.85800743 1.2193809 -0.3114142 1.4860533 0.38348603 0.75242174 -0.060374998 -1.0309242 -0.80162424 1.3629329 0.2126391 0.019499173 -1.5275167 -1.1696144 -0.7040671 -0.3688535 0.008570872
kabisa -1.0038023 1.2881136 -1.7900097 0.041439533 1.573388 0.77314717 -0.176845 -1.056117 -3.6042016 0.32906315 0.45641786 -0.24580525 -0.5454219 0.19418538 0.26167026 0.6918445 -0.13374595 1.7864183 1.906668 -0.028387776 -0.086998194 -0.890595 0.1516077 -1.2033186 0.26516154 0.37522566 0.15465122 0.45093858 0.56446934 -0.86111504 1.1605352 0.1282968 1.367083 -3.4070907 -1.2431244 -0.2129842 0.8860525 -1.3021423 -0.40657 0.0820008 -1.0782914 0.6690577 -0.68134964 1.2510307 0.43808964 0.100920916 -1.6433175 1.409436 -0.011955302 4.064111 0.0073870197 -0.3041181 0.04595734 1.103741 0.28661603 0.015875641 1.4572144 -1.871973 2.688706 0.15540382 0.55756974 0.0979564 -0.20024993 0.9682488 -0.6424045 0.062403474 0.02070804 -0.0025703488 1.5346211 -0.74098706 -0.04858357 0.6996415 -0.8146231 -0.22431067 -0.51371366 -1.0233344 1.3369654 -0.18772475 -0.75842434 -0.27172193 1.7178067 -0.49771154 -1.0487963 -0.4301919 -1.7230244 1.3920496 -0.33953342 1.636757 0.5007573 0.7964166 0.35726184 1.8114251 -1.5979929 0.42014682 2.8494449 1.5532284 -1.3693664 0.5872512 1.2743295 0.9447238
lakini -1.2907863 0.008002013 -0.47390354 -1.9556303 -0.002285962 0.88047653 -1.2389883 -0.7677937 -0.81702286 -0.5180649 -0.41329592 -1.2959943 1.0760119 -0.60809004 0.35923812 0.37758887 1.1976833 -0.18503192 -0.10982892 0.21991743 0.294961 -0.5899496 -1.044223 0.76534367 1.1180195 -0.44367942 -0.93801975 0.866083 -0.9473542 2.036936 -1.3814899 -1.7745907 -0.068100944 -0.0026381516 -2.396706 -0.4809445 -1.147582 -0.8333939 -2.3950455 0.3701571 0.10395331 0.74524575 0.93412834 1.9159145 2.2802947 -0.8381064 -0.15559408 0.34541377 0.8230434 -0.30525756 -1.0671635 -0.46123764 1.0869274 0.6160375 -1.0529056 -2.1619284 0.19424982 -1.0008128 0.4422914 0.96833444 0.08305865 1.1768199 0.73836684 2.478083 -1.0863035 0.9845954 -2.6718752 -0.30074418 -0.46702692 -1.781439 0.82848 0.54926807 -0.5847208 0.2200878 0.80539775 -0.75441176 -0.011611432 0.9174183 -1.3967986 0.30822754 -1.0154867 -0.19764023 -0.26992533 -1.2545244 -3.2394807 1.7005932 0.38044423 1.583762 -0.29658604 0.13682458 -1.0144169 0.6961978 0.40239742 -0.64829224 2.5991063 3.0689068 -1.8872225 -0.18024677 0.20931642 -1.318921
wao 0.629992 -0.4339296 0.24821968 1.7976489 0.25748074 -1.2807288 2.5322266 0.43556434 0.49998087 0.36788425 -2.7049181 -0.37314844 0.4974126 -1.0132995 0.6446742 -1.7727916 0.36592057 0.28815815 -0.2307652 0.7634566 0.8934183 -1.5140028 0.8022094 -1.0656086 0.11080952 -0.8943246 0.53675234 -0.36577165 0.70758575 1.2410504 -0.51843363 -0.8152654 0.28211266 -4.0200086 -0.017202325 -0.89443374 0.048152555 1.1985377 2.1091344 0.17901604 0.5199765 1.6312104 1.2333167 -0.8501904 -1.4057773 0.16852349 0.59051406 -1.0911499 -0.19668318 1.5585409 -0.24605176 1.2631059 0.7048644 0.80569714 0.62375176 0.65089166 1.0595804 -0.22653803 1.6634746 0.31163993 0.35866553 -0.21922237 0.33616778 0.9682004 0.33784872 0.405909 0.20742841 -0.87905127 0.86046094 -1.0138334 1.366363 1.447453 0.0023459543 1.0996321 0.52343094 -1.2514641 -0.014289718 -2.7103956 0.11507417 -5.322509 1.0732459 -0.2523647 -1.3902651 0.22689238 0.6780229 -0.4197476 -0.62863517 -1.082465 0.1418197 -0.9478046 0.6984063 -0.07830357 0.39970452 0.072609976 -0.9657683 -1.3416687 1.2168424 -0.47964528 0.46843567 -0.43702444
ilikuwa -0.67693365 0.4292831 0.45271128 1.3360159 -1.216055 -1.7093152 -0.8535917 -0.20523107 1.8037106 -0.08809902 -0.33975312 1.4932495 0.32589763 -0.28133145 -1.0438341 0.8228387 2.0441358 0.83032703 -0.049230043 1.0482025 0.94865096 0.51696146 -0.1769667 -0.9442894 -0.3578358 -0.67603254 2.4328227 -0.47873348 -0.3831425 -1.485486 0.27334568 0.23283762 0.45728022 0.354583 -2.4111595 -5.6106744 1.8818299 -2.128507 -2.267146 2.6994715 0.784511 -2.1488912 -1.0280504 1.9068135 -0.53448075 0.36135462 2.9148355 0.44173 0.0021446683 -0.27042678 -0.6618619 1.1526372 0.6751436 -0.8374166 -0.88729954 0.38731763 3.2756028 1.2943155 0.06180507 0.29116952 3.3128445 1.3887668 0.6336384 -0.07937485 -0.48264137 1.8521911 0.36234608 0.21545677 1.1410534 1.1883897 0.29733327 0.286422 0.527079 -1.6061097 0.7858996 1.8906351 -0.69263923 -0.34006768 3.9746375 -0.6629402 -0.79486346 0.9646994 0.46946108 0.7108515 -0.6872475 2.2136755 0.6866978 -0.19814041 -1.1607424 0.5232001 -0.06707516 -0.47572532 0.44921663 -1.4828687 -0.73857665 0.7731006 1.2989446 1.2442205 0.8446734 -1.3238508
chumbani -0.54091567 -0.29012945 -1.7912374 -0.066827 -0.7158637 -0.6361912 0.61153454 -0.19691995 0.9121046 0.54661304 -0.38020942 1.7143092 0.017918112 -0.39724246 1.1463367 0.7978425 -0.060615662 1.7491617 -1.4710323 1.0720363 0.06721981 -0.2528184 0.058788583 0.6584421 2.2915542 -0.3052844 1.8969046 -0.8794277 -0.11528329 2.0857115 -1.3529392 -0.46259752 -0.612408 -0.10211811 0.90029204 -1.2209892 -0.4224655 -3.3161595 0.28943583 2.7108624 0.16122401 2.4821904 -1.1222267 0.1523362 1.7901939 0.06699652 -0.07307597 0.79162914 0.41171035 0.691882 0.67860097 -2.1220105 -0.46281528 -0.2689717 0.0037933742 0.31822962 -1.1485683 6.6588116 1.3711492 -1.3944821 0.51197785 1.4979792 0.3709785 2.8578093 -0.03409968 0.85198885 -0.065820925 0.486442 0.20605423 -0.62578255 0.712851 -0.6646106 0.8733447 0.5243203 0.13136493 -0.770815 -0.36199713 -0.59130365 0.5126216 -0.5443844 1.188591 -0.1430023 1.4356444 -1.198526 -0.32748932 0.045959 -0.340662 1.2193936 1.2862526 -0.7961157 1.0113558 3.7343137 -1.5239737 -0.63983417 0.20286529 3.4504378 0.05642628 -0.06597022 0.4207468 -0.921663
wake -0.63038063 0.6877827 0.34808597 0.09313231 -0.27026355 -0.020101387 -0.1705508 -1.810017 0.055202313 -1.5285977 1.1325105 0.27255756 -0.68827784 -0.28713715 0.943994 1.0405486 -0.9549351 0.51559585 1.9290797 0.13775222 0.16099977 -0.015614324 -0.022123083 0.2759417 1.8491048 0.093779385 -0.13919374 -0.3164851 1.1617727 -0.6656532 -1.8980844 -0.7826513 -0.5849576 -2.726276 1.7994431 0.74203426 -1.0899547 2.7575295 1.4305087 3.1562161 -0.5749365 0.7788732 -0.927229 0.8424291 0.58938926 -1.1040975 -0.48783067 -1.0156592 0.25024828 -0.2640399 -1.9768847 -1.0316595 -0.1611227 -1.1830217 -1.1503327 0.0758995 -1.0442221 -0.6407902 0.94374496 0.5044563 0.21121678 0.4439961 -0.14958331 0.7400324 0.24349584 -1.0031565 -1.1819259 -1.6183207 0.6352696 -1.4568365 -0.13207364 1.7362809 1.0108228 -2.1446528 0.98461 0.5176452 0.48707998 -0.26438713 -1.1659504 1.3192225 1.7283839 0.45379296 1.9428326 -1.1388133 0.82917255 0.67208743 0.6279546 1.5884397 0.46551767 0.3330845 -0.26592624 1.468685 -0.5774765 -0.3926732 0.21258353 -0.65915114 0.54158187 -0.4232832 -0.45351586 -0.5472575
chumba -1.1494623 0.10795086 0.7660261 0.5913627 1.0024786 1.0730442 0.32038373 -1.003015 -0.7981208 0.38460195 0.49669257 0.77573293 0.15034904 -0.03888926 1.7119038 1.383845 1.2543335 -0.12066043 -0.20414653 1.7840761 -0.19063537 -0.47843075 -0.20158337 -2.026919 2.0855632 -0.79098743 -1.7260317 -0.6692481 0.12264404 0.2740915 1.7689005 -0.9072267 0.43025348 0.58387136 0.6690685 -0.2785962 -0.88896996 -0.9421968 -1.7302773 1.0219933 -1.012719 1.1883126 3.2115517 1.4711062 -0.5725674 1.114725 -0.055891525 -0.9619139 1.6163865 -0.052591693 -0.8784084 -0.29680008 -0.08191501 -0.5771025 0.48718187 0.17994893 -0.97444886 -1.2158543 1.8019485 1.122599 1.492935 2.1440241 0.28863886 1.1435785 -0.9693515 -0.39755 1.2370328 0.7719676 -0.3154313 -2.4941325 -0.28440565 0.5299965 -0.4333374 -2.1191483 0.7690963 0.037338853 0.69375134 -1.9465895 2.7614012 0.4231032 2.6975942 0.41454273 -0.39724725 0.46214545 -3.693469 -0.113933735 0.5811637 1.3243277 0.13888265 -1.2216337 -2.5210938 1.5468408 0.9307434 1.6783755 -0.4159116 -1.2060213 -1.113944 -0.45048702 0.56079304 -0.54535156
kelele 1.1648322 -0.8653873 1.1233499 -0.1502365 -0.7841515 -1.6539874 -0.029745374 0.4629682 0.99541414 2.1469073 -0.37832865 -0.7013363 0.9201449 1.0717317 1.1611621 0.6668442 1.8099018 -3.852919 -1.7447201 -0.838231 1.3090053 0.8449432 -0.033538483 -0.15077806 -0.63181186 0.5769893 1.613187 -0.4189353 -0.48562846 0.33830208 1.6194849 -0.18217535 2.1757858 0.4009426 -0.3969835 -1.3919815 -1.5252334 -1.0959784 3.3986526 0.07011682 1.6998651 0.17066523 -1.2350683 -1.1518818 0.11044216 -2.043097 -0.14699228 0.89349896 0.15541287 -0.2469292 -1.983145 -1.0435328 -0.37512457 1.9749842 1.3221074 0.56329733 -0.7043116 0.5475436 0.7672004 -0.42977744 0.6797232 1.302045 0.73281467 1.9876952 -0.5413854 -0.57962227 -0.91173226 0.056397256 0.70398283 -1.0501395 -0.2507902 0.066755086 -0.42391545 -4.796718 1.6045177 -0.87669384 0.23246531 -4.160566 -0.0020478475 -0.33894917 -0.6699225 0.17184728 -0.74825305 -0.30980584 2.0890462 -1.225997 0.4111007 2.031747 0.8700348 0.7957837 1.0986253 -0.82787544 -0.42627212 -0.25147396 0.7234586 -0.85959625 -0.010102908 -0.6889559 0.09796548 1.893245
ambaye -0.007554925 -0.09407811 -0.27858862 0.39060634 -0.2020671 0.6641288 1.5773315 0.33408937 -0.8322042 0.23496547 0.22911502 2.0275288 1.4879508 -1.3482295 0.19182028 1.6141753 0.38531083 1.7125643 0.15568027 0.40386552 0.7613999 -0.5371353 -1.1009481 -0.66586655 -0.4401324 -0.6940382 1.9273769 0.12076149 -0.21051152 -0.7908406 -1.5230576 -1.4300716 -0.31377363 -0.5685855 -1.7325138 -0.78317606 1.5732499 -0.8215483 -0.16703081 0.06529103 1.100878 0.016671503 0.39757523 0.92782235 -1.731412 0.051548414 -0.23784633 2.0020833 1.6239388 1.5221866 -0.30605552 2.8719099 0.066655196 -2.6258833 -0.3141461 0.15209807 0.1390253 1.7360282 2.6460724 -0.017053295 0.5335852 1.9937731 1.1056157 -0.5074907 1.2782001 0.51781255 0.4823962 -0.87613773 -0.41334194 -0.22882102 1.2700634 -0.36662975 -0.8932694 -2.816455 0.41794175 -0.13506351 -1.0328574 -0.15075637 0.23531045 -1.6277455 -0.75378144 -0.33681816 0.42377025 1.8272177 -2.3276095 0.48174366 -0.9818768 -1.0734655 0.95234567 0.51230675 1.0589052 -0.8950067 1.1419395 -1.6368202 0.94216275 -0.60957193 -1.5622772 -0.79356706 2.0049343 0.8705543
bwana -0.115967646 0.9838747 0.19265538 -0.40981826 1.228595 0.53922164 -0.16652304 -1.1027619 -0.43110892 -0.54691315 -0.42219332 -0.37040257 -0.825803 0.4374351 -0.54181916 0.15567671 1.8321508 -1.6901237 -1.38694 -0.851754 -0.040276136 -0.9053208 -0.94854885 0.73980916 -0.40177515 -0.093122154 0.92611897 -0.7411702 -0.64477193 -0.09690584 -0.0325777 -0.5549656 0.43453768 -0.19396971 -0.3506588 -1.0418687 1.060678 -0.40996248 -3.181326 -0.91165674 -0.7775788 0.609724 -0.09804364 1.8183316 1.4445482 1.3577482 2.5411675 1.4295086 0.22119352 1.9911826 -1.8522182 -0.09745927 0.4561043 -1.3945552 -0.9769572 -0.46415797 -0.8943566 -1.4046376 -3.3789046 -0.07056359 -2.0422654 0.3051338 1.8860412 -0.015679965 -0.42955548 0.92205215 -1.8101053 0.16739827 -2.480099 1.1667739 -1.0269704 1.5753425 -0.6264841 -0.05487466 -0.70239866 -0.13481478 0.48036197 0.40225703 3.3949099 0.094247356 0.31773174 0.24860708 0.3682207 -0.87857354 0.45727113 2.0421076 0.0012440318 0.37837467 0.11572086 -0.12158136 0.5771981 2.60775 -0.30358484 0.1410207 2.0642014 3.4917657 1.5624685 1.0419834 -0.1145562 -0.3149594
hali 3.9942493 0.2002133 0.5011397 -1.0151397 -0.04508508 -0.47752976 1.5507907 -0.03494006 -0.25340572 -0.37843016 -2.118154 -2.6217217 0.7170458 0.32538065 0.32931897 1.1184486 1.92461 0.034230918 1.1462462 -0.013907278 -0.36772764 1.1377376 -0.4582469 -0.8908451 0.32852492 1.1610972 -0.612345 -0.8371506 -0.08852132 0.47278267 -1.3935875 -0.33619577 0.88149524 0.692183 -2.9642491 -2.5458903 -0.36886334 -0.6874126 -3.1189802 -0.79781425 -1.1047937 1.3895639 0.38826436 0.43428952 -2.6033401 0.10902641 -0.66879016 0.6952289 -0.46529612 1.7700132 -1.4774575 -1.3348958 3.485655 -0.441806 1.8617508 0.18388526 2.7436159 -0.9197647 2.5671575 -0.21321686 -2.2381415 0.284832 -0.25889194 3.23965 2.0972226 -0.69670534 0.06930856 0.560495 0.4759819 -0.99997663 0.26950893 0.06913305 0.08532906 0.69870853 -0.8505038 0.44682372 -0.23932166 0.9436195 1.4901 0.7526885 0.20381407 -0.49539387 0.95828575 -0.8808272 0.27168104 0.38989657 0.10571781 0.3769329 0.5267224 -0.3103308 0.042794265 0.8386802 0.7359983 -0.42739993 0.99077797 0.9537639 -0.8555892 1.513791 -0.18297398 -0.4458978
homa -0.9338394 0.5599112 -0.47814313 0.26645973 0.90758467 0.112153955 0.8663334 -0.22477216 0.3657807 -1.3769928 -1.1872904 0.69907945 -0.550028 -0.35782316 0.9015711 -0.3437689 0.7861268 0.97742283 2.3475022 -0.18036522 0.2743502 0.092052266 -1.1404744 -0.99399483 -2.721489 -0.6509603 0.7098973 -1.2085704 -0.79250586 3.401778 2.2477174 -1.0455996 -0.24640207 -0.32308587 0.55144024 -4.730015 -0.031173699 -2.2160997 -1.5618758 -0.24041906 0.6216108 -0.6157636 -0.10770411 1.2601866 1.7245412 0.0072408286 -0.44967908 1.4930218 -0.18337968 -0.31729046 -0.25665808 -0.9831239 0.90184236 -0.3715756 -0.0042244866 0.8049246 -2.623542 -1.1777451 -2.3290875 0.14879788 -1.1007311 -2.6314964 0.99089545 1.7844828 -0.6330816 -0.38740718 0.7084703 0.49633184 1.1194522 0.24272661 0.034126338 0.27862793 0.6219401 -3.6402788 -0.1562149 -0.41465464 -0.74564254 1.7091717 -0.2222544 -1.8726166 -2.0969582 -0.7456548 0.20019802 -1.2940036 0.014795157 0.6992193 -3.5767999 -0.40141886 0.0693733 0.16212073 0.14722167 -0.47143787 0.5591181 0.40677038 -0.010618505 -1.2129452 5.776477 0.3669196 -0.8957445 -0.5071578
kawaida -1.5382718 -1.0435997 0.49217132 1.6975465 -0.08791012 -1.0750105 0.97111154 -1.8176332 -1.3322967 -0.90967643 0.31178206 -0.24857515 -0.989702 -0.2459648 1.0786805 0.912776 0.20693539 1.1837847 -0.15884946 -0.21041945 -0.04312727 -1.5590191 -0.5234637 0.19274467 2.9353454 -0.58851945 -3.2919736 0.94779515 1.0667936 1.1845837 0.91586924 1.4999942 -1.6624627 0.004958071 0.25907102 1.3395352 -0.6140913 -2.1743658 -2.8195753 3.1406236 1.7890661 -0.7517334 -0.9779492 -2.8288684 -0.22025177 0.031249922 -2.540205 -1.0386038 0.90908617 -0.804697 0.36885908 -0.8052484 2.0445018 0.7259263 -2.244604 0.2606944 3.3506775 -1.4887679 1.44992 0.027204173 -1.2545545 3.0353584 -0.7384 1.9686397 -0.8613293 -0.5137277 -2.141127 -0.44389382 0.49935776 -0.8778125 0.1631172 -1.4144658 -0.13809034 -1.1042975 0.734462 -0.090170115 0.33667234 -0.89326376 1.2539375 -0.5929346 3.342722 0.42818245 0.16877548 0.017190684 -0.33928216 0.7409531 -0.03980229 0.31073344 0.28528622 0.67184687 0.5133833 3.6085038 0.8908255 0.6028663 0.5201727 -1.2674545 -2.5936248 -1.0334737 -0.01799795 1.7844678
zake -1.1247964 0.12156414 0.1279438 0.94760317 -0.185183 -1.2442728 -0.30295548 -0.494071 0.7856387 -0.6927264 -0.15939426 1.038088 0.26416358 0.026366703 0.14559546 -0.49424368 -1.0506692 -1.9417832 -0.4051823 -0.4279855 -0.6881692 -0.87036073 0.25295553 0.8258452 2.8192112 -0.09996174 1.682539 -0.017406855 0.12307827 2.7047374 0.22544362 -1.3191271 -0.7439216 -3.1374462 0.9999202 -1.5518609 -0.061179895 4.630504 4.257956 0.35338798 1.481095 1.1962749 1.1207395 -0.6480873 1.0990616 -0.55434585 -0.48338172 0.8031809 -0.7617814 -1.0612692 1.0064551 0.047689915 0.38907915 2.406511 -1.0382035 0.06981253 -2.3476467 0.67358136 -0.29076558 0.62978214 0.41764128 -0.34438214 0.7895766 -0.9575258 3.4796436 0.4681499 1.0429224 0.51087874 -0.89312726 -0.21520498 -1.0321681 0.14553851 0.6391473 0.45857385 0.69162065 1.4062033 0.021315627 -2.7130532 -0.1849323 -0.71595114 0.19305702 1.3133913 0.24796897 -0.82454795 -4.446723 0.34291178 0.62174505 -0.5446012 -0.23666303 -1.5660443 -0.6719377 -1.220294 0.0058673634 0.9429745 3.3626978 1.2865738 0.6903953 1.49184 -0.44715828 -0.8336988
naye 2.3049333 0.36388204 0.58158916 0.60418046 0.5263103 -0.5521825 -0.14631131 0.24303487 0.45251527 -0.22793902 -0.091983825 0.5701562 0.9152646 0.24783322 -0.23317365 0.1457639 -0.3276881 0.09616718 -1.2958169 0.26248854 0.5380756 0.8783956 -0.47032046 0.29988655 0.9989955 -1.321024 -0.63559186 -0.5082668 -1.1883031 -0.25068712 0.7614018 -0.9905283 -0.3512344 0.30668902 0.15333043 0.59390134 -1.2399011 -2.7170079 1.1615891 -0.6814555 0.26907605 0.5061096 0.46728286 0.24485044 -0.6834275 0.82661325 -0.7410919 1.4816487 0.33482444 0.5492925 -0.07433737 -0.33013323 -0.25639686 -0.66716987 -0.9009281 1.2619162 0.07425021 -0.121673174 1.1443808 -0.7030777 -0.16541976 1.3262639 1.6573908 -1.0156523 -0.9339182 0.70304257 -0.4267228 0.9345977 1.0989217 -0.27582142 -1.7866201 0.83679336 -1.1099131 0.005299248 -0.18549968 0.45918965 -0.6236005 0.27639 0.13883 -1.3564551 -0.23454426 -0.38305944 0.14770554 -1.0852457 -1.6570836 -0.14260636 0.40900275 -0.926366 0.007400323 0.32087773 0.57132167 -0.64806366 1.291653 0.22247769 1.2476429 0.594074 -1.8917254 -0.6811658 0.36392817 -0.6252305
kidogo 0.043517336 -1.0535414 -0.11972864 -2.6181798 0.852958 1.5485784 1.0824324 -0.6535008 -1.8986732 1.5682151 -0.26148364 1.8169116 -0.80551773 0.6521046 -0.24449359 0.8143153 -0.82324743 -2.225396 -0.88442814 0.4733974 -0.02022642 -0.60668945 -0.71241856 -0.26678514 0.6333993 0.27421287 -0.2610095 -0.5910743 1.5327382 0.4343134 0.7538973 -0.07544209 0.074299335 1.2199799 -0.07651486 0.07589624 0.5549231 -0.8854353 -1.2245363 0.61922157 -0.12703308 -0.80677205 1.2087533 -1.5536866 0.91673684 0.21983258 -0.70279646 0.29912183 -0.0020878678 -0.013660634 0.25089005 1.0198777 -0.6811796 -0.337032 0.19949335 0.31994572 -0.57489455 -0.5223754 -0.53818876 1.030802 -1.0832633 2.3038175 -0.3777794 0.16073507 -0.6141966 0.100013666 0.46064803 -0.011588759 -0.17528993 0.24651399 0.503926 2.9875069 -1.980428 -4.6321845 -0.197674 0.0811334 0.2500304 0.9625736 -0.3236189 0.16424264 1.0235326 1.29324 0.12599404 -0.77301234 -3.5108335 -0.40404493 0.33374634 -0.41844413 -0.14494538 -1.0552487 -0.056515615 0.4320431 0.86538756 0.2054608 2.7925937 -0.20432073 -1.3381023 -0.7084605 -0.42736915 -0.17415616
gari -1.5111463 -0.84599835 -0.52155125 0.49042708 1.254275 -0.9713603 0.23843077 -2.3412225 -0.56098336 -1.1861025 -0.43376198 -0.24938227 1.1714771 0.52192366 -0.3873301 0.60452455 -0.9661601 -0.7812636 0.9469773 -0.017672695 0.19225854 -1.0949123 -0.9837883 1.3876492 -2.5915654 -0.5694721 -2.0870214 0.82542324 -0.069025874 0.5578719 0.50293684 0.8752439 -0.057599798 0.4952918 -0.7938086 0.25982338 -0.52803624 -1.3445172 -0.2181242 0.91070473 0.25344482 -0.113298975 -0.13391447 -0.35905403 0.21924926 0.59351 -0.4456382 -0.16736324 -1.1064243 0.05093364 0.8247572 -0.78083056 0.515159 -0.5766501 0.07937515 -0.5135186 2.0960522 0.9871601 -3.2079687 -0.1725594 -1.3833911 1.0324847 -0.4930943 0.85143626 1.2266965 0.050137732 0.928921 -0.28433678 -0.8638941 -0.2750131 0.124182306 0.70448977 -0.43614057 -0.2079285 0.85837835 0.31233448 -0.16135612 -0.19634056 0.32993144 -0.22609182 1.2795098 0.264206 0.13299361 -0.70828307 0.84176266 0.09835506 -0.7150441 -0.23750645 1.2250779 -0.90014094 2.5244443 -0.8214905 0.34333482 -0.43662423 0.937755 -0.7683046 -0.14451803 1.842058 -0.61371636 0.004954331
tano -0.44566238 -0.68613064 0.96721005 1.5690333 0.6548443 -1.082423 0.65038776 -0.17786513 0.062447466 -0.30009252 -0.7681456 0.73702985 -0.75270486 -0.21127364 -0.5735053 -0.091307715 -0.35635474 -0.16495083 -0.62975085 -0.69411993 -0.44084898 -0.39205533 -0.25696504 0.4292722 1.2656696 0.53071535 -0.9688206 -0.28078836 0.240153 0.07299166 1.5149273 -0.6543636 -1.0610231 0.9294097 -0.68985313 -0.17398475 -1.0356587 -1.023468 0.13654546 0.3708131 -0.32061094 0.07619167 -0.30620596 0.62047607 0.4758322 0.17296506 -0.16756912 2.0900953 1.206667 0.028573455 -0.7696978 -0.17008841 -0.57001114 -0.34153628 0.3151323 1.1662663 -0.05945889 -0.6731146 0.16949277 -0.75812554 -0.87572384 0.020103576 -0.12721363 -0.83450246 -0.81610644 -0.025502464 1.5579565 0.6290888 0.18715194 -0.8632677 0.84926176 -0.8851765 -0.347384 -0.24728467 -0.005688833 -0.6939079 1.1007682 -0.3026355 1.8490448 -1.6730983 0.91105914 0.24493514 -0.05531439 0.31539 -1.2665898 -0.97633296 -0.6297103 -0.024907844 -0.51865095 1.8323708 -0.5409938 -0.57010216 2.0494323 -0.12297409 -0.39060375 -0.43673933 -0.27951372 1.149073 1.2175021 1.3667328
bandarini 0.19244641 0.10341037 -0.996479 -0.21291879 0.27188122 -1.672849 0.46738118 0.5183451 0.6180868 0.9349697 -1.6138624 0.21101977 0.47007 -0.5370393 0.69304496 -0.8648098 -0.51762265 -0.21908185 0.5548135 -0.05401548 0.3642114 0.06480425 -0.9634555 1.0526378 0.43123487 -0.29072493 -0.20769034 2.3653088 0.61944807 0.0905005 2.6319396 0.3497388 -0.6426436 -0.54462886 -0.17602643 -1.7966039 0.37029848 1.3418244 -0.101998374 -0.73524845 1.8647065 -0.5829644 0.04329553 -1.2529682 -0.42170942 -2.0042787 0.7570581 1.2333549 0.046201956 0.49994862 1.8728498 -1.0448202 1.1238075 -0.71404463 -1.1195278 -0.22735217 0.930174 -0.7410459 1.0815151 0.97167087 0.88042384 -1.447813 0.4630013 0.21686544 1.3729936 -0.51632375 -0.20344792 -1.2531879 -0.12937312 -0.52251315 0.28742748 1.204814 0.564089 0.015119016 -1.4236678 -0.41795465 0.32480326 -1.737292 -0.2812603 0.06117933 1.8640158 1.4789543 -0.9420118 1.7597953 -1.1731725 -0.45152056 0.04587158 -1.1024623 0.23652107 -0.36804104 -0.4889676 0.033379372 -0.17067294 0.2831459 -0.22921821 0.5596309 1.5444033 -1.1364329 1.0836812 -0.6103158
hizo 4.0518265 0.22853856 -1.8889945 0.5644855 -0.78668547 0.49737936 0.22591004 -0.54646915 0.59097075 0.10461789 0.4165019 0.57211584 0.5896085 -0.72238606 -1.364944 1.1369767 -3.0866992 -0.852872 0.057364196 -0.049797006 0.060056336 1.3463709 -0.62363076 -0.17277499 -0.51470876 -0.3553626 -0.909586 -0.44827726 0.075371385 1.5843213 2.2152324 0.037649497 -0.21430872 0.18070143 -3.3620548 -0.22536379 2.1807332 0.9664794 0.6921248 0.035848547 0.9725435 0.3576029 1.5011201 0.22411329 0.25404626 0.2248158 -0.99024934 1.8650743 -0.6298486 0.5309864 -0.3122148 -1.8481163 -1.049701 -0.71202105 -0.28748667 -0.78473866 2.599675 -0.56814563 1.0538577 1.2205209 1.3282194 0.934989 0.5268425 2.8392866 1.7886772 -0.123680495 0.6159963 -0.54528075 0.02926385 0.5949119 0.06127587 4.2167387 0.60219467 -3.2324018 1.3894365 -0.53489876 1.1054875 -1.0006 0.39981806 -0.88505566 -0.6066863 -0.7014076 -1.1838436 2.7685206 -2.4992979 0.2871772 2.0690258 -0.11329652 -0.35777923 1.4361396 0.60424936 -1.7574427 0.91756225 -0.4168223 1.2949234 -0.7691583 -0.12715638 1.1545885 -0.55284417 -0.50333816
masihara -1.566635 0.24682716 0.02351693 0.33041245 -0.33004478 1.2979074 0.17856124 -0.16955715 0.22768642 0.19137861 -1.0317369 -1.2972568 0.33811453 0.89909554 0.42568 2.4452207 2.4230917 0.4194178 0.39512601 -0.880048 0.4911057 1.8409297 -0.6936265 -0.21813318 -1.1347811 -1.4351894 -2.2374027 -0.6309103 0.96101785 0.58591443 2.4075782 0.28693 2.7417204 0.0058234427 1.6285532 1.1113751 -0.97515076 -0.10143903 -0.14509404 -0.16037185 -3.4223604 -0.39613253 1.6543067 -4.4377995 1.7259 -0.14972098 -1.6681935 0.13957569 1.3283083 0.9365107 -1.2388029 1.8330675 0.20803806 -0.68660235 -0.88328946 -0.480649 1.1872435 -1.1506069 1.0952724 -0.33489904 0.9157019 -0.35846952 0.185464 0.66370916 -0.08088423 -0.34425846 -0.1078137 0.08411184 2.3509789 -2.1229448 -0.037842967 2.6135795 -0.2268359 -1.3953022 -1.3853664 0.034403298 0.56346226 -0.9873228 0.5466637 -1.8910192 4.194526 0.07873291 -0.19005957 -1.4790508 -2.752703 0.14404681 -0.8984209 -0.85805756 -0.2750105 0.3802047 -1.7769579 -1.4184943 0.8886066 -0.2274917 0.31519553 0.6932015 0.31451055 1.0646882 1.6161598 0.23674439
ni 1.4606376 0.55064523 -2.5575418 0.6155138 0.54186565 -1.4244226 -0.92910534 -0.14222793 0.3831539 -1.57131 0.46926612 0.043408815 2.0525477 -0.8280911 0.58935755 -0.015856849 -1.4037274 0.6207815 0.91036284 -0.3702675 -0.9038906 -0.594909 -1.1199677 -0.00010644179 1.700216 -0.6163351 -1.5491339 -0.22402862 0.3737439 1.6830415 -1.9246098 -0.053919714 0.9236566 -0.09731724 -2.156012 0.8581002 0.7563534 -3.0304358 -1.4978225 1.4625151 1.4528029 1.0220947 2.96278 2.158253 -1.3821404 -0.074593954 0.21741477 0.8053936 1.2443126 -0.09089617 0.046779644 -1.2384864 -0.028141193 -2.1661873 -0.6239207 0.91371256 1.1252686 -0.23230901 -0.089687005 0.3111956 -0.016145296 2.7532108 1.5218347 1.6361893 -0.5023577 0.39059412 -4.6417246 0.40269566 -0.5490557 -0.3099739 -0.022029735 -1.2078885 -0.30910525 1.1014243 -0.32488576 0.49131387 -0.062568404 -1.2600446 -1.8902854 1.3674808 0.20140071 -0.56150824 0.38608935 -1.2163178 -3.1715739 0.7042086 -2.9384809 0.49961773 -0.77387553 -0.6490549 -0.3193035 3.600937 1.1243583 1.4345188 -0.01351552 2.2973068 0.36659506 0.3891498 0.06664457 -1.2241439
ili -0.8874973 0.25623652 0.012797898 -0.069309205 -1.3050879 0.111564904 0.46940878 -0.7573175 1.508363 1.5044031 0.28060338 1.5625986 1.9674281 -0.085447825 -0.4758973 0.013850552 0.09078012 -0.012895066 -1.3666973 -1.0730894 0.47063187 -0.55711997 -1.5104733 0.4371094 3.0897245 -0.2282424 0.071037784 -0.56381136 -0.08159893 0.12449254 2.5962517 0.4784975 -0.44082993 -1.0176377 -0.79890406 -1.3342009 -0.65242577 -0.37908977 3.0002782 2.411211 -0.47022948 0.940343 1.1090478 1.740988 -0.21634583 0.098684855 -0.7671674 0.3334507 -0.5795809 -0.41179913 0.98612285 -0.08622985 -1.3830321 1.4748976 0.33281764 -0.12150318 -0.48715782 0.09026332 1.5946182 -0.47014576 -1.4551023 -1.918306 0.09674276 2.015208 0.68182975 0.2490252 0.4138846 -1.5197959 -0.111290246 -0.9340265 -1.0063865 -0.028930264 0.55158305 1.0363284 -0.8128876 -0.478215 -0.36862668 1.5069568 0.9544366 -2.9357584 2.8817432 -0.17313497 0.20818882 1.2739768 0.101871036 -1.3566954 0.014902516 -0.4188203 0.6951714 -1.2351754 -0.43108 -0.30433747 0.013233724 0.18715078 2.8127155 0.5506598 1.3376769 -0.41444603 -1.0547385 -0.9632532
muda -0.7262585 -0.42995352 -0.041200288 -0.39106938 -0.25821337 -1.204724 -1.3553078 -1.6306506 -3.6115901 0.096023925 0.89147216 -0.19627504 0.5619391 0.012918064 -0.52012783 -1.5007665 1.8784786 -2.404611 0.821431 -1.1861541 -0.04923681 -0.31006247 -0.29705745 -1.0692762 -2.152302 0.39016545 0.9341661 -0.55451155 0.7749169 3.292252 0.89305943 -2.7771046 0.96067464 -1.8537729 -0.5252147 -0.48308012 -2.3114932 0.63021713 -0.05559587 -0.5005733 1.3613299 1.8950927 0.39597324 -2.6832585 -0.06486237 -1.6951905 0.3433889 -3.9430966 0.7705469 0.756457 -1.3207366 -0.8201792 -0.006110127 0.13067839 1.001664 -0.24929237 0.0065208217 -0.8082999 -0.50179434 -1.5323107 -0.41403565 -1.107318 1.0171765 0.9319058 -1.5276597 -0.9043594 0.38930708 0.56134707 -0.032691177 -0.63488805 0.2754117 -0.51283383 0.24807684 -0.83769536 -1.3691108 -0.33459753 0.1091405 -0.30063167 0.9858015 -1.2708148 0.39030686 -0.5865699 0.25202346 0.41445646 -0.6727531 1.4919343 -0.4693429 0.47959572 0.78234315 0.09314143 0.96648556 0.9429368 1.3827745 -0.6321594 0.92929524 -0.7149437 -1.0762677 -0.09623208 -0.6474838 -0.5642896
